{"sizes":[142,71,3],"layers":[{"0":{},"1":{},"2":{},"3":{},"4":{},"5":{},"6":{},"7":{},"8":{},"9":{},"10":{},"11":{},"12":{},"13":{},"14":{},"15":{},"16":{},"17":{},"18":{},"19":{},"20":{},"21":{},"22":{},"23":{},"24":{},"25":{},"26":{},"27":{},"28":{},"29":{},"30":{},"31":{},"32":{},"33":{},"34":{},"35":{},"36":{},"37":{},"38":{},"39":{},"40":{},"41":{},"42":{},"43":{},"44":{},"45":{},"46":{},"47":{},"48":{},"49":{},"50":{},"51":{},"52":{},"53":{},"54":{},"55":{},"56":{},"57":{},"58":{},"59":{},"60":{},"61":{},"62":{},"63":{},"64":{},"65":{},"66":{},"67":{},"68":{},"69":{},"70":{},"71":{},"72":{},"73":{},"74":{},"75":{},"76":{},"77":{},"78":{},"79":{},"80":{},"81":{},"82":{},"83":{},"84":{},"85":{},"86":{},"87":{},"88":{},"89":{},"90":{},"91":{},"92":{},"93":{},"94":{},"95":{},"96":{},"97":{},"98":{},"99":{},"100":{},"101":{},"102":{},"103":{},"104":{},"105":{},"106":{},"107":{},"108":{},"109":{},"110":{},"111":{},"112":{},"113":{},"114":{},"115":{},"116":{},"117":{},"118":{},"119":{},"120":{},"121":{},"122":{},"123":{},"124":{},"125":{},"126":{},"127":{},"128":{},"129":{},"130":{},"131":{},"132":{},"133":{},"134":{},"135":{},"136":{},"137":{},"138":{},"139":{},"140":{},"141":{}},{"0":{"bias":0.005880185402929783,"weights":{"0":0.11587823927402496,"1":0.0006365090957842767,"2":-0.00007513216405641288,"3":0.13720421493053436,"4":0.03743823990225792,"5":-0.17727382481098175,"6":-0.026021985337138176,"7":-0.13931363821029663,"8":0.09723027050495148,"9":-0.1298128366470337,"10":0.09447898715734482,"11":-0.029785025864839554,"12":0.09352926164865494,"13":-0.008540721610188484,"14":0.12316140532493591,"15":-0.08897223323583603,"16":-0.08967553079128265,"17":0.09934333711862564,"18":-0.1772061139345169,"19":0.08197901397943497,"20":-0.0031105077359825373,"21":-0.13174040615558624,"22":-0.09403502196073532,"23":-0.05089939385652542,"24":0.13437405228614807,"25":-0.08072727918624878,"26":0.10316389799118042,"27":0.15627332031726837,"28":-0.1354447901248932,"29":-0.04444464296102524,"30":-0.18345515429973602,"31":0.0814770981669426,"32":-0.10880831629037857,"33":-0.0568193681538105,"34":0.1037454679608345,"35":0.12500609457492828,"36":-0.1130821481347084,"37":-0.03641141578555107,"38":-0.0676797553896904,"39":-0.0007816103170625865,"40":0.08319210261106491,"41":-0.20102962851524353,"42":-0.09624741971492767,"43":0.0244242362678051,"44":0.18234769999980927,"45":0.0767621397972107,"46":0.0990259200334549,"47":0.06276774406433105,"48":-0.17431411147117615,"49":-0.06794155389070511,"50":0.12251690775156021,"51":-0.0945652648806572,"52":0.2007419764995575,"53":-0.12970580160617828,"54":0.10017804056406021,"55":-0.009676901623606682,"56":-0.16078023612499237,"57":0.19445417821407318,"58":-0.16379941999912262,"59":-0.0756450742483139,"60":-0.028541116043925285,"61":0.16741150617599487,"62":0.10032950341701508,"63":0.14349786937236786,"64":-0.011482065543532372,"65":0.1349988430738449,"66":0.05125734582543373,"67":0.044557373970746994,"68":0.20091387629508972,"69":-0.043440043926239014,"70":-0.023084348067641258,"71":0.050285931676626205,"72":0.0841907188296318,"73":-0.060149721801280975,"74":-0.06752223521471024,"75":-0.08543643355369568,"76":0.052752893418073654,"77":0.021973464637994766,"78":0.21266213059425354,"79":0.2136204093694687,"80":-0.03402808681130409,"81":-0.15866664052009583,"82":0.18157222867012024,"83":0.07233081758022308,"84":0.18570108711719513,"85":0.13245822489261627,"86":0.13103288412094116,"87":-0.06307852268218994,"88":-0.18138979375362396,"89":0.045227136462926865,"90":-0.009305386804044247,"91":-0.0058817751705646515,"92":-0.0614069439470768,"93":-0.13895416259765625,"94":0.1845247447490692,"95":0.0331299714744091,"96":-0.03932124748826027,"97":0.18111708760261536,"98":0.01752876490354538,"99":-0.007478378713130951,"100":-0.10124902427196503,"101":-0.050248708575963974,"102":0.205453559756279,"103":0.0714019238948822,"104":-0.09014055877923965,"105":-0.17810051143169403,"106":0.14000186324119568,"107":-0.15388797223567963,"108":0.08879068493843079,"109":-0.05453312397003174,"110":0.09286481142044067,"111":-0.050920698791742325,"112":0.08250446617603302,"113":0.11791998147964478,"114":-0.12294310331344604,"115":-0.08031944185495377,"116":-0.09929919987916946,"117":-0.11502817273139954,"118":0.013926183804869652,"119":-0.11055874079465866,"120":0.1564132571220398,"121":0.014778160490095615,"122":0.08598795533180237,"123":0.03097696416079998,"124":0.09998850524425507,"125":-0.06677807122468948,"126":0.00722360098734498,"127":0.05541565269231796,"128":-0.10057671368122101,"129":-0.08144541084766388,"130":-0.13500326871871948,"131":-0.18356479704380035,"132":-0.16721342504024506,"133":0.11180849373340607,"134":0.030904315412044525,"135":-0.11867214739322662,"136":0.14140866696834564,"137":0.13279585540294647,"138":-0.04474920034408569,"139":0.16211502254009247,"140":-0.2058073729276657,"141":0.005958923138678074}},"1":{"bias":-0.07919159531593323,"weights":{"0":0.30401918292045593,"1":-0.11955535411834717,"2":0.158175989985466,"3":-0.11109357327222824,"4":-0.12391646206378937,"5":0.045329105108976364,"6":-0.11770118027925491,"7":-0.13952623307704926,"8":0.003918058704584837,"9":-0.1291281282901764,"10":0.011469134129583836,"11":0.20359094440937042,"12":0.08549395203590393,"13":0.03234545513987541,"14":0.09717173129320145,"15":-0.14551103115081787,"16":0.20208029448986053,"17":-0.08185150474309921,"18":-0.018069935962557793,"19":-0.06790721416473389,"20":-0.11198899894952774,"21":0.0024365242570638657,"22":-0.15164563059806824,"23":0.0621778666973114,"24":-0.05720113217830658,"25":0.1708516627550125,"26":0.08828575164079666,"27":0.11185722053050995,"28":0.1149754524230957,"29":-0.02439330704510212,"30":0.10727764666080475,"31":0.06262100487947464,"32":0.19495098292827606,"33":-0.042534999549388885,"34":0.00247019506059587,"35":-0.021515648812055588,"36":-0.034587159752845764,"37":-0.1548698991537094,"38":0.20932944118976593,"39":0.1161208301782608,"40":-0.15088452398777008,"41":-0.06092150881886482,"42":-0.05834314227104187,"43":-0.12651844322681427,"44":0.002216913038864732,"45":0.14338037371635437,"46":-0.014894701540470123,"47":-0.04652838408946991,"48":-0.08915936946868896,"49":-0.17226165533065796,"50":-0.013081055134534836,"51":-0.06422062963247299,"52":0.06089944764971733,"53":-0.09815628826618195,"54":0.0776790902018547,"55":-0.01629425771534443,"56":-0.14614176750183105,"57":0.0030163980554789305,"58":0.11391761898994446,"59":-0.1312595158815384,"60":-0.1274232715368271,"61":0.10690993815660477,"62":-0.10637780278921127,"63":0.14295053482055664,"64":-0.12983955442905426,"65":0.17928844690322876,"66":-0.12256745994091034,"67":-0.11130981892347336,"68":0.16024601459503174,"69":-0.12251242250204086,"70":-0.14972026646137238,"71":-0.06713073700666428,"72":-0.13398216664791107,"73":0.03944973647594452,"74":-0.18240351974964142,"75":0.07459849119186401,"76":-0.15191377699375153,"77":0.11381280422210693,"78":-0.11227189004421234,"79":-0.037669312208890915,"80":-0.19330990314483643,"81":0.07726865261793137,"82":-0.11671877652406693,"83":-0.1531297266483307,"84":0.09320484846830368,"85":-0.18711206316947937,"86":0.03796077519655228,"87":0.12594322860240936,"88":-0.0751350000500679,"89":0.10458793491125107,"90":0.16848620772361755,"91":-0.04888011887669563,"92":0.1804727017879486,"93":-0.03935729339718819,"94":-0.04171822592616081,"95":0.04381406679749489,"96":-0.1190633475780487,"97":0.03006952814757824,"98":-0.10841257870197296,"99":-0.12432831525802612,"100":0.17717720568180084,"101":0.06398703902959824,"102":-0.09069949388504028,"103":-0.08901402354240417,"104":-0.012174725532531738,"105":-0.0537736751139164,"106":-0.08958880603313446,"107":-0.05377259850502014,"108":0.16396968066692352,"109":-0.1153395026922226,"110":-0.08655184507369995,"111":-0.2639402747154236,"112":-0.09855302423238754,"113":-0.10057253390550613,"114":-0.09783601760864258,"115":-0.12006976455450058,"116":0.026982756331562996,"117":-0.20657095313072205,"118":-0.2048935741186142,"119":0.00025851698592305183,"120":-0.15720239281654358,"121":0.057444874197244644,"122":-0.16870658099651337,"123":0.06767041236162186,"124":0.158148854970932,"125":-0.18423427641391754,"126":-0.15133585035800934,"127":-0.05624544247984886,"128":-0.18152497708797455,"129":-0.09722024202346802,"130":-0.08146511018276215,"131":-0.016199635341763496,"132":0.0017591392388567328,"133":0.07270903885364532,"134":-0.10448738187551498,"135":0.13081568479537964,"136":0.14621904492378235,"137":-0.16204428672790527,"138":-0.05589823052287102,"139":0.1110600158572197,"140":-0.03667967766523361,"141":-0.1633511483669281}},"2":{"bias":-0.1695943921804428,"weights":{"0":-0.09846082329750061,"1":-0.025102274492383003,"2":-0.097016841173172,"3":-0.2344721257686615,"4":0.01664445362985134,"5":-0.026858525350689888,"6":-0.0905037522315979,"7":-0.14769664406776428,"8":0.04623589292168617,"9":-0.14985208213329315,"10":-0.07876311987638474,"11":-0.17838197946548462,"12":-0.03591717779636383,"13":0.09925984591245651,"14":0.06499280780553818,"15":0.10057134181261063,"16":-0.1536109894514084,"17":0.05609308183193207,"18":0.018727127462625504,"19":-0.04630720242857933,"20":0.014492315240204334,"21":0.00611322745680809,"22":-0.1590190976858139,"23":-0.16079778969287872,"24":0.1641567498445511,"25":-0.13134433329105377,"26":-0.13063260912895203,"27":0.14191575348377228,"28":0.03573577105998993,"29":-0.10112982243299484,"30":0.06158887967467308,"31":-0.22789739072322845,"32":-0.0887434184551239,"33":0.1832720786333084,"34":0.022124605253338814,"35":-0.13101685047149658,"36":0.1346701681613922,"37":-0.21637305617332458,"38":-0.11926375329494476,"39":0.07692787796258926,"40":0.016980469226837158,"41":0.16403871774673462,"42":0.012730736285448074,"43":-0.1790984570980072,"44":0.1384810209274292,"45":0.2198006957769394,"46":0.20551273226737976,"47":-0.105253204703331,"48":0.12549635767936707,"49":-0.11083530634641647,"50":-0.17510995268821716,"51":-0.09209085255861282,"52":0.0850604996085167,"53":0.020396031439304352,"54":0.2596278488636017,"55":-0.15575741231441498,"56":-0.11502578109502792,"57":0.10371023416519165,"58":-0.006676123943179846,"59":-0.06346763670444489,"60":0.04678267985582352,"61":-0.11329318583011627,"62":0.08867738395929337,"63":-0.12571366131305695,"64":-0.004213409032672644,"65":0.07548471540212631,"66":0.1971229761838913,"67":-0.008901359513401985,"68":0.1926484853029251,"69":0.0632893443107605,"70":0.2075251042842865,"71":0.2185341715812683,"72":0.007875485345721245,"73":0.23582883179187775,"74":0.033082444220781326,"75":0.180583193898201,"76":0.1809072047472,"77":0.10244512557983398,"78":0.18359552323818207,"79":-0.10166236758232117,"80":-0.029945002868771553,"81":-0.06368640065193176,"82":0.12859466671943665,"83":0.2101934850215912,"84":0.1274978220462799,"85":-0.13965681195259094,"86":0.09365548938512802,"87":0.19106930494308472,"88":0.05630432441830635,"89":0.11197903752326965,"90":-0.0986090824007988,"91":0.0007350555970333517,"92":0.21022219955921173,"93":-0.014831545762717724,"94":-0.06017906591296196,"95":0.13822652399539948,"96":0.1698123812675476,"97":-0.13968361914157867,"98":0.025047415867447853,"99":0.052206408232450485,"100":0.0893358364701271,"101":0.001630290411412716,"102":0.07561027258634567,"103":0.055414941161870956,"104":-0.10692154616117477,"105":0.130265474319458,"106":0.023644447326660156,"107":-0.15867075324058533,"108":-0.05438363552093506,"109":-0.03613360971212387,"110":-0.05815794691443443,"111":-0.04650568962097168,"112":-0.10281448066234589,"113":0.09897854179143906,"114":-0.1767265647649765,"115":0.08240661025047302,"116":0.18732964992523193,"117":-0.0829741358757019,"118":0.09355274587869644,"119":-0.13067322969436646,"120":0.06629764288663864,"121":0.13796493411064148,"122":-0.12631309032440186,"123":0.09388145059347153,"124":0.04049098119139671,"125":-0.18509671092033386,"126":0.057589784264564514,"127":-0.10790540277957916,"128":-0.06992742419242859,"129":-0.004899235442280769,"130":0.07795263081789017,"131":-0.030527694150805473,"132":-0.16243542730808258,"133":-0.13900984823703766,"134":-0.020605118945240974,"135":-0.1432785838842392,"136":0.18038815259933472,"137":0.04663414880633354,"138":-0.12934726476669312,"139":0.08975677192211151,"140":-0.005431178957223892,"141":-0.049822136759757996}},"3":{"bias":0.18969391286373138,"weights":{"0":-0.013851954601705074,"1":0.1136515736579895,"2":-0.012892014347016811,"3":0.0363057516515255,"4":-0.0859905406832695,"5":0.005565023515373468,"6":0.2100733369588852,"7":-0.061466023325920105,"8":0.062492381781339645,"9":0.17726825177669525,"10":-0.16356371343135834,"11":-0.17354793846607208,"12":-0.018919682130217552,"13":-0.01931649073958397,"14":-0.06910957396030426,"15":0.1052500307559967,"16":0.09107685089111328,"17":-0.05799508094787598,"18":-0.010494380258023739,"19":-0.05265255272388458,"20":-0.1723523586988449,"21":0.1218702644109726,"22":-0.05352462828159332,"23":-0.17524507641792297,"24":0.03935373201966286,"25":0.03923466056585312,"26":0.1703348606824875,"27":-0.15974834561347961,"28":-0.013721560128033161,"29":-0.10201716423034668,"30":0.11448083072900772,"31":-0.08731647580862045,"32":-0.15787097811698914,"33":-0.03720579296350479,"34":-0.17976067960262299,"35":0.17800959944725037,"36":0.05852422118186951,"37":-0.08322694897651672,"38":-0.15059326589107513,"39":-0.16892161965370178,"40":-0.07858234643936157,"41":0.11641857028007507,"42":0.07051306217908859,"43":0.06515836715698242,"44":0.0040475972928106785,"45":0.15796403586864471,"46":-0.10367570072412491,"47":-0.060346901416778564,"48":-0.20163396000862122,"49":0.02296178787946701,"50":-0.20001499354839325,"51":-0.08257733285427094,"52":-0.17594952881336212,"53":-0.10768193006515503,"54":0.09702982008457184,"55":0.12206469476222992,"56":0.014068260788917542,"57":0.16105970740318298,"58":0.11872585117816925,"59":0.1074037253856659,"60":0.14791804552078247,"61":-0.11612682789564133,"62":-0.014917423017323017,"63":0.06558949500322342,"64":-0.16095271706581116,"65":0.15308460593223572,"66":0.09028813242912292,"67":0.022543344646692276,"68":-0.005881834775209427,"69":0.015016238205134869,"70":-0.19643093645572662,"71":0.13813109695911407,"72":-0.22667649388313293,"73":0.04472440108656883,"74":-0.18791641294956207,"75":0.0727752074599266,"76":-0.17359218001365662,"77":-0.1895625740289688,"78":0.17594468593597412,"79":-0.03608838841319084,"80":0.06130709499120712,"81":-0.138649120926857,"82":0.05783894285559654,"83":0.03006008267402649,"84":0.18502359092235565,"85":0.19329330325126648,"86":-0.07769015431404114,"87":-0.19092482328414917,"88":0.13068124651908875,"89":0.12472677230834961,"90":-0.052309662103652954,"91":0.04827720299363136,"92":0.17001737654209137,"93":0.05969823896884918,"94":0.016238678246736526,"95":0.07299747318029404,"96":-0.17217588424682617,"97":0.17571042478084564,"98":0.13399063050746918,"99":-0.031356386840343475,"100":-0.17901583015918732,"101":0.15667574107646942,"102":0.05749092996120453,"103":-0.01977011375129223,"104":-0.0814179852604866,"105":-0.15424488484859467,"106":0.0500064417719841,"107":-0.06122163310647011,"108":-0.17751218378543854,"109":0.16379114985466003,"110":-0.1825399398803711,"111":-0.07069516181945801,"112":0.13537229597568512,"113":-0.06265050917863846,"114":-0.09593810141086578,"115":0.09769631177186966,"116":-0.2061944454908371,"117":-0.010970166884362698,"118":-0.09567563235759735,"119":0.0023724031634628773,"120":0.036294855177402496,"121":0.17763669788837433,"122":-0.08509041368961334,"123":0.12062505632638931,"124":0.004201688803732395,"125":-0.15709152817726135,"126":-0.07825902104377747,"127":0.10641075670719147,"128":-0.2007596343755722,"129":0.09878339618444443,"130":-0.050823505967855453,"131":-0.20047856867313385,"132":0.12615270912647247,"133":0.07051482051610947,"134":0.11303666234016418,"135":-0.0313614159822464,"136":0.0982699766755104,"137":0.05974900349974632,"138":0.01132974773645401,"139":-0.07791608572006226,"140":0.06022881716489792,"141":-0.09919200837612152}},"4":{"bias":-0.05473679304122925,"weights":{"0":-0.39908793568611145,"1":-0.21900756657123566,"2":0.10581638664007187,"3":-0.17936989665031433,"4":-0.08417403697967529,"5":0.021386519074440002,"6":-0.2283584475517273,"7":-0.06493382900953293,"8":0.0668291449546814,"9":-0.0874687135219574,"10":-0.20508135855197906,"11":-0.07774662971496582,"12":0.10746902227401733,"13":0.053249482065439224,"14":-0.1446332335472107,"15":0.058919984847307205,"16":0.028459714725613594,"17":-0.21466650068759918,"18":-0.054030075669288635,"19":0.010793679393827915,"20":-0.188243567943573,"21":0.03135572001338005,"22":-0.13006079196929932,"23":-0.15118388831615448,"24":0.08467419445514679,"25":-0.028071342036128044,"26":0.10417704284191132,"27":0.008054126985371113,"28":0.08106524497270584,"29":-0.11751093715429306,"30":-0.16872312128543854,"31":0.16093838214874268,"32":-0.016268812119960785,"33":-0.18344494700431824,"34":-0.018938401713967323,"35":0.0371708907186985,"36":-0.16981913149356842,"37":0.09526011347770691,"38":-0.2148430496454239,"39":0.13931013643741608,"40":0.09948275238275528,"41":0.04157375544309616,"42":-0.1848371922969818,"43":0.052128445357084274,"44":-0.10557053983211517,"45":-0.17693711817264557,"46":0.18318895995616913,"47":0.17740094661712646,"48":-0.16622212529182434,"49":0.07873076945543289,"50":0.14635609090328217,"51":-0.05691676586866379,"52":0.0213181022554636,"53":0.01107518095523119,"54":0.052185557782649994,"55":-0.12027368694543839,"56":-0.16092386841773987,"57":0.020772289484739304,"58":-0.11408117413520813,"59":-0.18128333985805511,"60":-0.10539610683917999,"61":-0.15560032427310944,"62":0.04277079552412033,"63":-0.10780328512191772,"64":0.09221220761537552,"65":-0.18312020599842072,"66":-0.00460213515907526,"67":0.07347825914621353,"68":0.08084200322628021,"69":0.060049425810575485,"70":-0.07221288233995438,"71":0.0751243382692337,"72":0.1468796581029892,"73":-0.04965387284755707,"74":-0.19166408479213715,"75":0.01109770592302084,"76":-0.24524915218353271,"77":-0.07530176639556885,"78":0.04974476620554924,"79":-0.10101579129695892,"80":-0.013457168824970722,"81":0.08976759761571884,"82":-0.14560940861701965,"83":-0.09853772073984146,"84":0.11902806162834167,"85":0.02329535037279129,"86":0.028303436934947968,"87":-0.17712286114692688,"88":-0.17838874459266663,"89":0.007083075121045113,"90":0.16661028563976288,"91":-0.012642746791243553,"92":0.0769205316901207,"93":0.0975298061966896,"94":0.1449957937002182,"95":0.12589174509048462,"96":-0.12672846019268036,"97":-0.017038991674780846,"98":0.07095523178577423,"99":-0.020299576222896576,"100":-0.15423311293125153,"101":0.15085162222385406,"102":-0.007285494823008776,"103":-0.15705835819244385,"104":-0.06397756189107895,"105":-0.1701386272907257,"106":0.07449448108673096,"107":0.10625288635492325,"108":0.11470615118741989,"109":0.09735080599784851,"110":0.2825203239917755,"111":0.35093414783477783,"112":0.15240523219108582,"113":0.057657357305288315,"114":-0.09339545667171478,"115":0.24620477855205536,"116":-0.03932039812207222,"117":0.10557270795106888,"118":0.24884679913520813,"119":-0.11396707594394684,"120":0.10270120203495026,"121":-0.059005770832300186,"122":0.10184717923402786,"123":0.24986980855464935,"124":0.21641018986701965,"125":0.24402867257595062,"126":0.22600054740905762,"127":0.11148851364850998,"128":-0.04778631404042244,"129":-0.14120766520500183,"130":-0.006854475475847721,"131":-0.14141838252544403,"132":0.2500632107257843,"133":0.1971270591020584,"134":0.05536738038063049,"135":-0.11197422444820404,"136":0.14262452721595764,"137":0.10371215641498566,"138":-0.028026292100548744,"139":0.10158884525299072,"140":-0.015612192451953888,"141":-0.03456034138798714}},"5":{"bias":-0.10523716360330582,"weights":{"0":0.10583916306495667,"1":0.15401194989681244,"2":-0.09888367354869843,"3":0.046691033989191055,"4":0.009064015001058578,"5":0.1503240317106247,"6":0.04492412135004997,"7":-0.0423709899187088,"8":0.023490792140364647,"9":-0.07193971425294876,"10":0.12489869445562363,"11":-0.06296256929636002,"12":0.0640786662697792,"13":-0.022628242149949074,"14":-0.023273753002285957,"15":0.19845660030841827,"16":0.14075957238674164,"17":0.07132605463266373,"18":-0.032842542976140976,"19":-0.03619355708360672,"20":0.17857696115970612,"21":-0.09703382104635239,"22":0.0825132429599762,"23":0.21327827870845795,"24":-0.021560538560152054,"25":0.015400564298033714,"26":-0.04350798577070236,"27":-0.13046729564666748,"28":0.12333232909440994,"29":-0.02735993266105652,"30":0.06484843790531158,"31":-0.17014504969120026,"32":-0.037551138550043106,"33":0.10008832067251205,"34":0.09514987468719482,"35":-0.1171981543302536,"36":0.008634292520582676,"37":0.10746563225984573,"38":0.10941704362630844,"39":0.11346304416656494,"40":0.0835048034787178,"41":-0.17502722144126892,"42":0.20492063462734222,"43":0.017260584980249405,"44":-0.26021531224250793,"45":0.04581484943628311,"46":0.0957552120089531,"47":-0.20547735691070557,"48":-0.15046128630638123,"49":-0.08008944243192673,"50":-0.0636172965168953,"51":-0.14044862985610962,"52":0.13594496250152588,"53":-0.2011842280626297,"54":0.060704443603754044,"55":0.14107626676559448,"56":-0.19147950410842896,"57":-0.1229882761836052,"58":-0.03311481699347496,"59":0.08383461833000183,"60":0.03682447969913483,"61":0.1009879931807518,"62":0.04570337012410164,"63":0.15506058931350708,"64":0.006569778546690941,"65":-0.17620933055877686,"66":0.023784378543496132,"67":-0.028901616111397743,"68":-0.10521591454744339,"69":-0.14835086464881897,"70":-0.03338943421840668,"71":-0.08360371738672256,"72":0.07748966664075851,"73":0.12621314823627472,"74":-0.21698707342147827,"75":-0.023087209090590477,"76":0.08057102560997009,"77":0.07753928750753403,"78":-0.19971077144145966,"79":-0.20455628633499146,"80":-0.10621251910924911,"81":-0.0819811299443245,"82":-0.15040840208530426,"83":-0.0754377692937851,"84":-0.10536082834005356,"85":0.046992503106594086,"86":-0.0028263244312256575,"87":0.17009949684143066,"88":0.078769750893116,"89":0.12840379774570465,"90":0.036183614283800125,"91":-0.05226223170757294,"92":0.03569253534078598,"93":0.11351452767848969,"94":-0.012629383243620396,"95":0.06226891651749611,"96":-0.10386339575052261,"97":-0.015241594985127449,"98":0.16716520488262177,"99":-0.11847515404224396,"100":-0.04137682542204857,"101":0.15444733202457428,"102":0.030495427548885345,"103":0.17385023832321167,"104":-0.15461161732673645,"105":-0.10451815277338028,"106":-0.14774250984191895,"107":0.1261787861585617,"108":-0.18737715482711792,"109":-0.08957281708717346,"110":-0.13225917518138885,"111":-0.06200508773326874,"112":-0.1008712500333786,"113":0.06107104569673538,"114":-0.03782140091061592,"115":0.12469262629747391,"116":0.17200234532356262,"117":0.022997859865427017,"118":-0.15345704555511475,"119":0.05918462574481964,"120":0.1173522025346756,"121":0.13532975316047668,"122":0.18283310532569885,"123":-0.06195454299449921,"124":0.07696908712387085,"125":-0.1928214728832245,"126":0.02342625893652439,"127":-0.1592131108045578,"128":-0.11594408005475998,"129":-0.048623912036418915,"130":0.15878769755363464,"131":0.16914498805999756,"132":-0.13248877227306366,"133":0.03330721706151962,"134":0.16447384655475616,"135":-0.0772460401058197,"136":-0.011722690425813198,"137":0.04560406506061554,"138":-0.13244405388832092,"139":-0.05686569586396217,"140":0.1769716888666153,"141":0.11134263128042221}},"6":{"bias":0.052072495222091675,"weights":{"0":0.09936991333961487,"1":-0.04295977205038071,"2":0.038501981645822525,"3":0.1772177815437317,"4":-0.18925383687019348,"5":0.18727856874465942,"6":-0.13641051948070526,"7":0.15127795934677124,"8":0.18170101940631866,"9":-0.1915464699268341,"10":-0.16637182235717773,"11":0.04387771338224411,"12":0.18439263105392456,"13":-0.1188875138759613,"14":0.05333484336733818,"15":0.13694901764392853,"16":-0.09634819626808167,"17":-0.17827832698822021,"18":0.06915945559740067,"19":-0.11086885631084442,"20":-0.16632817685604095,"21":0.004215050023049116,"22":-0.18295663595199585,"23":-0.147607684135437,"24":0.14307738840579987,"25":0.1324421763420105,"26":-0.007560564670711756,"27":-0.1433853656053543,"28":-0.0852322205901146,"29":-0.1707204282283783,"30":0.14085526764392853,"31":0.07195202261209488,"32":-0.018371393904089928,"33":-0.01146660465747118,"34":0.18952590227127075,"35":0.16596534848213196,"36":-0.1611800342798233,"37":0.026283295825123787,"38":-0.1682152897119522,"39":0.10380633175373077,"40":-0.06601624190807343,"41":-0.18741413950920105,"42":0.06058981642127037,"43":0.10813254863023758,"44":-0.11750932037830353,"45":-0.12624074518680573,"46":0.04717041179537773,"47":-0.056511666625738144,"48":0.0014300273032858968,"49":0.00892509613186121,"50":-0.060588642954826355,"51":-0.06809410452842712,"52":-0.018903175368905067,"53":0.15205158293247223,"54":-0.2003164440393448,"55":0.004100227262824774,"56":0.0007196520455181599,"57":0.11749716848134995,"58":0.10389433801174164,"59":0.13287541270256042,"60":-0.18667948246002197,"61":-0.16925673186779022,"62":0.09552163630723953,"63":-0.08325526118278503,"64":0.1441359519958496,"65":0.0718759223818779,"66":-0.18115778267383575,"67":0.09737562388181686,"68":-0.06053594872355461,"69":-0.01434099581092596,"70":-0.18177106976509094,"71":-0.16882285475730896,"72":-0.12627013027668,"73":0.15072675049304962,"74":-0.00255100941285491,"75":-0.08097496628761292,"76":-0.20833012461662292,"77":-0.2136153131723404,"78":-0.15873955190181732,"79":-0.03482861444354057,"80":0.12696008384227753,"81":0.19176293909549713,"82":-0.1600600928068161,"83":0.18775564432144165,"84":0.11984812468290329,"85":0.005797817837446928,"86":0.17310000956058502,"87":-0.15568086504936218,"88":0.17597265541553497,"89":0.07199685275554657,"90":0.09589015692472458,"91":-0.1384311467409134,"92":-0.08238089829683304,"93":0.19031859934329987,"94":0.03448444977402687,"95":0.1722148060798645,"96":-0.06940382719039917,"97":0.1763475388288498,"98":-0.002147946273908019,"99":-0.09350621700286865,"100":-0.09692279249429703,"101":-0.0759262889623642,"102":-0.006905566900968552,"103":0.1288130283355713,"104":0.11796391755342484,"105":-0.08275920897722244,"106":-0.07601432502269745,"107":0.061271149665117264,"108":0.057893529534339905,"109":0.019074203446507454,"110":0.12344951182603836,"111":-0.18316353857517242,"112":-0.14769913256168365,"113":-0.18695643544197083,"114":-0.14367221295833588,"115":-0.09206321835517883,"116":-0.1624479591846466,"117":0.1523382067680359,"118":-0.04580824449658394,"119":0.011654025875031948,"120":0.11123277246952057,"121":-0.17187975347042084,"122":0.09954942017793655,"123":-0.08498172461986542,"124":-0.03407233580946922,"125":-0.039753593504428864,"126":-0.1793716549873352,"127":0.04422778636217117,"128":-0.06012009084224701,"129":-0.1676606684923172,"130":0.178615540266037,"131":-0.1369570791721344,"132":-0.05659918114542961,"133":0.02743406780064106,"134":0.1875501126050949,"135":-0.18383583426475525,"136":0.08295080065727234,"137":-0.0867244228720665,"138":0.18299072980880737,"139":0.19142811000347137,"140":0.16365936398506165,"141":-0.0030200446490198374}},"7":{"bias":0.08716844022274017,"weights":{"0":0.2801000475883484,"1":-0.022445768117904663,"2":-0.006365197245031595,"3":0.10114508122205734,"4":0.14276479184627533,"5":0.07679972797632217,"6":0.2546784579753876,"7":-0.11291909217834473,"8":-0.1452028602361679,"9":-0.03525085002183914,"10":-0.03609851002693176,"11":0.22507494688034058,"12":-0.08720335364341736,"13":0.020911118015646935,"14":0.05230702832341194,"15":0.042236849665641785,"16":-0.06240319833159447,"17":0.10542529821395874,"18":0.1637798547744751,"19":-0.0378534197807312,"20":0.14741437137126923,"21":0.1451227366924286,"22":-0.0063621606677770615,"23":0.17094756662845612,"24":-0.11765207350254059,"25":0.011503041721880436,"26":0.03855378180742264,"27":-0.22362951934337616,"28":0.04412176460027695,"29":-0.013420229777693748,"30":-0.1425226330757141,"31":0.026060689240694046,"32":-0.06380821019411087,"33":0.001534037757664919,"34":0.1508844494819641,"35":-0.026906007900834084,"36":0.05179803818464279,"37":-0.08519340306520462,"38":-0.04415483772754669,"39":0.10130097717046738,"40":0.11363780498504639,"41":-0.0033202143386006355,"42":-0.08178933709859848,"43":-0.09851455688476562,"44":-0.293815016746521,"45":0.1287674605846405,"46":-0.1554458737373352,"47":0.08195090293884277,"48":0.06219301372766495,"49":0.06690554320812225,"50":-0.0011476040817797184,"51":-0.17587120831012726,"52":-0.07900654524564743,"53":-0.1564187854528427,"54":0.09399867057800293,"55":0.13040360808372498,"56":-0.17092221975326538,"57":-0.05219639465212822,"58":-0.03334867209196091,"59":0.09457524865865707,"60":-0.06745655834674835,"61":0.07771146297454834,"62":-0.20369595289230347,"63":0.03097820095717907,"64":0.08779070526361465,"65":-0.17830602824687958,"66":-0.1601215898990631,"67":-0.19557975232601166,"68":-0.0568588450551033,"69":0.09500423818826675,"70":-0.002438317984342575,"71":-0.2120220959186554,"72":-0.07294844835996628,"73":0.05681689456105232,"74":-0.07444994896650314,"75":-0.1415855437517166,"76":-0.1416439265012741,"77":-0.20557382702827454,"78":0.025028612464666367,"79":0.08008867502212524,"80":-0.026127241551876068,"81":-0.07056884467601776,"82":-0.009301588870584965,"83":-0.09603571146726608,"84":0.17110376060009003,"85":0.13444317877292633,"86":-0.0988851860165596,"87":0.01616152562201023,"88":0.0025520347990095615,"89":-0.12691691517829895,"90":0.16843745112419128,"91":0.11790726333856583,"92":-0.11593466997146606,"93":-0.09355439990758896,"94":-0.1561308652162552,"95":0.18047592043876648,"96":-0.007367623504251242,"97":-0.19009000062942505,"98":0.08691628277301788,"99":0.16448570787906647,"100":-0.022112399339675903,"101":0.00858810730278492,"102":-0.030110590159893036,"103":0.0038570796605199575,"104":-0.058254558593034744,"105":-0.12805375456809998,"106":0.07658056169748306,"107":0.1664818376302719,"108":0.16908332705497742,"109":-0.20728540420532227,"110":0.04188849404454231,"111":-0.22410669922828674,"112":-0.06127484515309334,"113":-0.05353577807545662,"114":-0.17553888261318207,"115":0.09780947864055634,"116":-0.11813735216856003,"117":0.06135908141732216,"118":0.15595155954360962,"119":0.014291462488472462,"120":0.06340190768241882,"121":-0.024379685521125793,"122":0.03882840648293495,"123":-0.05020375922322273,"124":0.08076737821102142,"125":0.15385349094867706,"126":-0.03707433119416237,"127":-0.114084891974926,"128":0.018344635143876076,"129":0.11004167050123215,"130":-0.1638818383216858,"131":-0.053041182458400726,"132":-0.08912909775972366,"133":-0.20794817805290222,"134":-0.09200219064950943,"135":-0.1338673233985901,"136":0.15073740482330322,"137":0.024317076429724693,"138":0.1265486776828766,"139":-0.02462143264710903,"140":0.14515946805477142,"141":0.1709374338388443}},"8":{"bias":-0.0395529679954052,"weights":{"0":-0.06250406056642532,"1":-0.09377790987491608,"2":-0.08263219892978668,"3":0.09305762499570847,"4":0.18151721358299255,"5":0.0612308569252491,"6":-0.1341053545475006,"7":-0.0940270870923996,"8":-0.08593747019767761,"9":-0.16510795056819916,"10":-0.018506206572055817,"11":-0.13853728771209717,"12":-0.022511418908834457,"13":0.19706152379512787,"14":-0.029032036662101746,"15":-0.05459926277399063,"16":-0.1708974391222,"17":-0.1553446501493454,"18":-0.089902862906456,"19":0.10998911410570145,"20":-0.007688877638429403,"21":0.17243558168411255,"22":0.07601259648799896,"23":0.09276833385229111,"24":0.1504465788602829,"25":0.039924103766679764,"26":-0.14631026983261108,"27":0.03940751403570175,"28":0.1412239521741867,"29":0.003480921033769846,"30":-0.14705832302570343,"31":-0.02627457305788994,"32":0.18801967799663544,"33":0.03310072794556618,"34":-0.1924794465303421,"35":0.009469499811530113,"36":-0.10488234460353851,"37":0.06318028271198273,"38":0.13783051073551178,"39":0.12714141607284546,"40":0.18586473166942596,"41":-0.03524315729737282,"42":0.004954754374921322,"43":-0.07556124776601791,"44":0.09627401828765869,"45":-0.1761023998260498,"46":0.15298928320407867,"47":0.06433368474245071,"48":0.013133437372744083,"49":0.014062085188925266,"50":0.12026537209749222,"51":-0.10957768559455872,"52":0.04325275495648384,"53":-0.030021725222468376,"54":-0.12850134074687958,"55":0.1933627873659134,"56":-0.1143454983830452,"57":0.08482418209314346,"58":0.11295725405216217,"59":0.08154696971178055,"60":-0.00954592414200306,"61":0.1180492639541626,"62":-0.11261129379272461,"63":-0.16850312054157257,"64":-0.06812629103660583,"65":-0.16616111993789673,"66":-0.12331004440784454,"67":0.200618177652359,"68":-0.10525841265916824,"69":0.024504706263542175,"70":0.10323243588209152,"71":0.1529901772737503,"72":-0.1642359346151352,"73":0.03943326696753502,"74":0.10362442582845688,"75":0.15684492886066437,"76":0.16205571591854095,"77":0.1625976860523224,"78":-0.07281217724084854,"79":0.141142338514328,"80":-0.03753890097141266,"81":0.14842696487903595,"82":-0.10586140304803848,"83":-0.11034481972455978,"84":0.09047190845012665,"85":-0.032517366111278534,"86":0.1663488745689392,"87":-0.04145315662026405,"88":-0.002205772791057825,"89":-0.09126613289117813,"90":-0.0535120852291584,"91":0.14131838083267212,"92":-0.09981725364923477,"93":0.08069375902414322,"94":-0.03971898928284645,"95":-0.021877450868487358,"96":0.060365334153175354,"97":0.19431723654270172,"98":-0.11283007264137268,"99":-0.11795417219400406,"100":-0.16187264025211334,"101":0.007985468953847885,"102":-0.17749546468257904,"103":0.1918349713087082,"104":0.14518317580223083,"105":-0.15372954308986664,"106":-0.053245190531015396,"107":-0.1003618836402893,"108":-0.11474943906068802,"109":-0.036875490099191666,"110":-0.20158907771110535,"111":-0.097137950360775,"112":-0.15464696288108826,"113":-0.12057039141654968,"114":-0.16110169887542725,"115":-0.043605703860521317,"116":-0.024798758327960968,"117":0.04992995411157608,"118":0.12555663287639618,"119":0.18439827859401703,"120":0.017067449167370796,"121":-0.011907682754099369,"122":0.057534750550985336,"123":-0.1175634115934372,"124":-0.10430724918842316,"125":0.17473775148391724,"126":-0.20506146550178528,"127":0.06329111754894257,"128":-0.08778444677591324,"129":0.18091577291488647,"130":-0.03093065321445465,"131":-0.1994038224220276,"132":0.07931111007928848,"133":-0.024036332964897156,"134":-0.016588348895311356,"135":-0.02626941353082657,"136":0.055836860090494156,"137":0.13680501282215118,"138":-0.1995922327041626,"139":0.14616627991199493,"140":-0.1313602328300476,"141":-0.048200059682130814}},"9":{"bias":-0.17528828978538513,"weights":{"0":-0.08051328361034393,"1":-0.15454067289829254,"2":0.04853196069598198,"3":0.1371944695711136,"4":0.01327646803110838,"5":0.008444332517683506,"6":0.1652737557888031,"7":0.1106906309723854,"8":0.17614395916461945,"9":-0.15806891024112701,"10":-0.017579933628439903,"11":-0.05162522941827774,"12":0.03556567057967186,"13":0.058344487100839615,"14":0.0723600909113884,"15":-0.10046035796403885,"16":-0.05711263418197632,"17":-0.04942575469613075,"18":-0.1775323897600174,"19":-0.008327190764248371,"20":-0.04720757156610489,"21":0.08548220247030258,"22":-0.008271066471934319,"23":0.10136205703020096,"24":0.05494130775332451,"25":-0.1904020756483078,"26":-0.011939597316086292,"27":0.26071685552597046,"28":0.06830960512161255,"29":0.14794357120990753,"30":0.12265532463788986,"31":-0.0322384312748909,"32":-0.010850125923752785,"33":-0.13840386271476746,"34":-0.09041047841310501,"35":-0.00505158631131053,"36":-0.18908517062664032,"37":0.09175015240907669,"38":-0.11072802543640137,"39":-0.03252219036221504,"40":0.09814534336328506,"41":-0.11137478053569794,"42":0.12291339784860611,"43":-0.1583278328180313,"44":-0.15037643909454346,"45":0.07204349339008331,"46":0.19700847566127777,"47":0.06585190445184708,"48":-0.09557633846998215,"49":-0.025791477411985397,"50":-0.15007993578910828,"51":0.20395122468471527,"52":-0.04342221841216087,"53":-0.01657840982079506,"54":-0.033337321132421494,"55":-0.0011127589968964458,"56":0.02505486086010933,"57":0.07337654381990433,"58":-0.08644987642765045,"59":0.00841214507818222,"60":0.14358477294445038,"61":0.014787064865231514,"62":0.03765272721648216,"63":-0.09547499567270279,"64":-0.02063414268195629,"65":0.14215821027755737,"66":-0.15829238295555115,"67":-0.06739748269319534,"68":-0.17028972506523132,"69":-0.15527759492397308,"70":-0.14734095335006714,"71":-0.07278944551944733,"72":-0.028923776000738144,"73":-0.00771575840190053,"74":-0.1638130396604538,"75":-0.08846701681613922,"76":-0.1669621616601944,"77":0.05068862438201904,"78":-0.03604966774582863,"79":-0.11982724070549011,"80":0.030357975512742996,"81":0.06708460301160812,"82":0.14138832688331604,"83":0.17147254943847656,"84":0.02595665492117405,"85":-0.119643434882164,"86":-0.04675033688545227,"87":-0.04410742595791817,"88":-0.044753458350896835,"89":-0.08408306539058685,"90":-0.1488558053970337,"91":-0.06949514895677567,"92":-0.021802261471748352,"93":0.14458110928535461,"94":-0.15627595782279968,"95":0.06255727261304855,"96":-0.16111713647842407,"97":0.1756792962551117,"98":-0.00568024255335331,"99":0.1560908555984497,"100":0.07734069228172302,"101":0.13868509232997894,"102":-0.05745762214064598,"103":0.060550641268491745,"104":-0.13211216032505035,"105":-0.15016308426856995,"106":0.13832798600196838,"107":-0.13172847032546997,"108":-0.018127845600247383,"109":0.07581020891666412,"110":0.05065854638814926,"111":-0.26544472575187683,"112":0.13058777153491974,"113":0.12256364524364471,"114":-0.025628583505749702,"115":-0.1995462328195572,"116":0.14370796084403992,"117":-0.08054816722869873,"118":0.0552397146821022,"119":0.1372670829296112,"120":-0.20608852803707123,"121":-0.20856605470180511,"122":-0.1593576967716217,"123":-0.027977829799056053,"124":0.11462295055389404,"125":-0.14030097424983978,"126":-0.21447031199932098,"127":0.12100845575332642,"128":0.04316800460219383,"129":0.01707826927304268,"130":-0.05883443355560303,"131":0.1810864806175232,"132":-0.13021567463874817,"133":0.15021052956581116,"134":0.12659215927124023,"135":0.16397713124752045,"136":0.08569252490997314,"137":0.09235434234142303,"138":-0.19816702604293823,"139":0.12078023701906204,"140":0.014006834477186203,"141":0.17577627301216125}},"10":{"bias":-0.19492557644844055,"weights":{"0":0.0985102728009224,"1":-0.16852937638759613,"2":0.020574435591697693,"3":0.04302676022052765,"4":0.1562257558107376,"5":0.089806467294693,"6":-0.07532911002635956,"7":-0.03433002158999443,"8":-0.2144124060869217,"9":-0.10772064328193665,"10":0.13026662170886993,"11":-0.1467742919921875,"12":-0.20144495368003845,"13":-0.08157318085432053,"14":-0.06917167454957962,"15":0.03748070448637009,"16":-0.16941797733306885,"17":-0.16963373124599457,"18":-0.08340884745121002,"19":-0.025046374648809433,"20":-0.2102668583393097,"21":-0.07514680922031403,"22":-0.04200507700443268,"23":0.039442598819732666,"24":0.06321082264184952,"25":0.14910702407360077,"26":0.12475863844156265,"27":0.1106090396642685,"28":0.17023825645446777,"29":-0.08950739353895187,"30":0.07811683416366577,"31":-0.05711076036095619,"32":0.1054668202996254,"33":0.07422946393489838,"34":0.1597461849451065,"35":-0.19142623245716095,"36":0.1785610020160675,"37":0.11109351366758347,"38":-0.10491599887609482,"39":-0.024030568078160286,"40":0.12189534306526184,"41":0.1109084039926529,"42":-0.005182669963687658,"43":-0.10815572738647461,"44":0.24583502113819122,"45":-0.02218000963330269,"46":0.10981649905443192,"47":-0.17045468091964722,"48":0.11097262799739838,"49":-0.027433102950453758,"50":-0.015980886295437813,"51":0.043841537088155746,"52":0.15906979143619537,"53":0.10713238269090652,"54":0.0369412899017334,"55":0.02542804554104805,"56":-0.14915159344673157,"57":-0.01650550402700901,"58":-0.01448877528309822,"59":0.04334789142012596,"60":-0.13166655600070953,"61":0.13310807943344116,"62":0.018669558688998222,"63":0.02235812321305275,"64":0.12546904385089874,"65":0.13417544960975647,"66":0.15321342647075653,"67":-0.07315889000892639,"68":0.2085588574409485,"69":0.18959501385688782,"70":0.0715995654463768,"71":-0.17483346164226532,"72":0.03273054584860802,"73":0.04131307825446129,"74":-0.05568935349583626,"75":0.013409081846475601,"76":0.004378550685942173,"77":0.16867589950561523,"78":0.039131857454776764,"79":0.07245901226997375,"80":-0.10206738114356995,"81":-0.06421370059251785,"82":-0.066477470099926,"83":0.014189734123647213,"84":0.15218709409236908,"85":-0.00842245388776064,"86":0.10135063529014587,"87":0.13449499011039734,"88":-0.13522686064243317,"89":-0.04226331785321236,"90":0.14577063918113708,"91":-0.018660524860024452,"92":0.0039388881996273994,"93":-0.1582934707403183,"94":-0.07280857861042023,"95":0.19445987045764923,"96":-0.02509269304573536,"97":-0.09596960991621017,"98":0.0683121383190155,"99":-0.1542373150587082,"100":0.13700979948043823,"101":0.06477761268615723,"102":0.05911845713853836,"103":-0.16261813044548035,"104":0.02177160046994686,"105":-0.07124533504247665,"106":-0.1862531155347824,"107":0.05395021662116051,"108":0.06872930377721786,"109":0.08546784520149231,"110":0.07260295748710632,"111":-0.17964163422584534,"112":0.059118807315826416,"113":-0.10188113898038864,"114":-0.036378491669893265,"115":-0.0195265281945467,"116":0.11716526746749878,"117":0.013739144429564476,"118":0.07793933153152466,"119":-0.10050816833972931,"120":-0.0809602439403534,"121":-0.09499508887529373,"122":-0.07114940136671066,"123":0.02374529466032982,"124":0.17514601349830627,"125":-0.10286891460418701,"126":0.051607705652713776,"127":-0.026632577180862427,"128":0.08024188876152039,"129":-0.14255893230438232,"130":-0.1340654343366623,"131":0.10583324730396271,"132":-0.0015908445930108428,"133":0.07536031305789948,"134":-0.005276787094771862,"135":-0.08855462819337845,"136":0.08672379702329636,"137":-0.11268332600593567,"138":-0.1133933812379837,"139":0.1370088905096054,"140":-0.03931732475757599,"141":0.051987286657094955}},"11":{"bias":-0.1265707015991211,"weights":{"0":0.09057707339525223,"1":-0.06506680697202682,"2":0.09880156815052032,"3":0.14897285401821136,"4":-0.03992428258061409,"5":0.07150521874427795,"6":0.13095949590206146,"7":0.16722413897514343,"8":0.21571630239486694,"9":0.11392488330602646,"10":0.10684283822774887,"11":-0.09611435234546661,"12":-0.05528083071112633,"13":-0.12290646135807037,"14":-0.10589253902435303,"15":-0.028371931985020638,"16":0.037948984652757645,"17":0.1247207373380661,"18":-0.03413580730557442,"19":-0.04796113073825836,"20":-0.004053034819662571,"21":0.14586490392684937,"22":0.10547363013029099,"23":0.089418925344944,"24":0.17368660867214203,"25":-0.08179502189159393,"26":-0.024569572880864143,"27":-0.015734486281871796,"28":-0.02849528007209301,"29":-0.08310448378324509,"30":-0.05232500284910202,"31":0.05165576934814453,"32":0.061937570571899414,"33":-0.16473472118377686,"34":0.168729767203331,"35":-0.12119892239570618,"36":0.0093182772397995,"37":0.02500723861157894,"38":-0.16471780836582184,"39":0.12450370192527771,"40":0.17127208411693573,"41":-0.01510219182819128,"42":0.04645342007279396,"43":0.19226348400115967,"44":-0.14615529775619507,"45":-0.10076967626810074,"46":0.04583068937063217,"47":-0.05852717533707619,"48":-0.2080603688955307,"49":0.014861649833619595,"50":-0.14399145543575287,"51":0.009127326309680939,"52":0.04401933029294014,"53":-0.027959229424595833,"54":-0.21874268352985382,"55":0.05804700776934624,"56":-0.1471613645553589,"57":-0.1500069797039032,"58":-0.05081915855407715,"59":0.0035112753976136446,"60":0.029011312872171402,"61":-0.02752809040248394,"62":0.09814593940973282,"63":-0.19856074452400208,"64":0.10798593610525131,"65":-0.012101289816200733,"66":-0.021442968398332596,"67":-0.07348886877298355,"68":-0.13386571407318115,"69":0.052560366690158844,"70":-0.035167716443538666,"71":0.14855054020881653,"72":-0.09016133099794388,"73":-0.15463455021381378,"74":-0.16481177508831024,"75":0.05833035334944725,"76":-0.23362062871456146,"77":-0.07426914572715759,"78":0.052994392812252045,"79":-0.15822209417819977,"80":0.16401399672031403,"81":-0.164024218916893,"82":0.09007145464420319,"83":-0.07325942814350128,"84":-0.08536533266305923,"85":-0.12528838217258453,"86":-0.10312537848949432,"87":0.15350961685180664,"88":0.11847759038209915,"89":-0.16387389600276947,"90":0.09131250530481339,"91":-0.0664847195148468,"92":-0.1810348629951477,"93":0.09334634989500046,"94":-0.11862759292125702,"95":0.14375978708267212,"96":-0.16830922663211823,"97":-0.005278073716908693,"98":-0.01901077851653099,"99":-0.07054667174816132,"100":0.07140377163887024,"101":-0.03710124269127846,"102":-0.14006644487380981,"103":-0.02533113956451416,"104":-0.2010236531496048,"105":-0.16002561151981354,"106":-0.026986857876181602,"107":0.023351479321718216,"108":-0.18097589910030365,"109":0.053773846477270126,"110":-0.18737871944904327,"111":-0.00018720248772297055,"112":-0.12463169544935226,"113":0.05238978937268257,"114":0.007403437979519367,"115":0.11013097316026688,"116":-0.09087330102920532,"117":0.012036868371069431,"118":-0.166326105594635,"119":0.16802243888378143,"120":-0.04346365109086037,"121":0.1880069375038147,"122":0.015587632544338703,"123":-0.12411294877529144,"124":-0.03849545866250992,"125":-0.1442766636610031,"126":0.018136152997612953,"127":0.04246077314019203,"128":-0.1759038120508194,"129":-0.0017605104949325323,"130":0.1610281616449356,"131":-0.14924828708171844,"132":-0.1520761400461197,"133":-0.12958693504333496,"134":-0.03540625423192978,"135":0.0020161268766969442,"136":-0.019543448463082314,"137":-0.12540605664253235,"138":0.12507905066013336,"139":0.1822277009487152,"140":-0.15255653858184814,"141":-0.17345601320266724}},"12":{"bias":0.21119293570518494,"weights":{"0":-0.05442164093255997,"1":0.13018211722373962,"2":0.2511858344078064,"3":0.17859601974487305,"4":0.009761549532413483,"5":-0.020184190943837166,"6":-0.06321486085653305,"7":-0.07986444234848022,"8":0.10586398094892502,"9":-0.09341274946928024,"10":0.08793558180332184,"11":-0.08194321393966675,"12":-0.1313679814338684,"13":-0.06525729596614838,"14":0.15955697000026703,"15":-0.10450592637062073,"16":0.04733525216579437,"17":0.1425955593585968,"18":0.1354697346687317,"19":-0.13430926203727722,"20":0.11189039796590805,"21":0.05365990847349167,"22":0.13203935325145721,"23":0.20985862612724304,"24":-0.02606283500790596,"25":0.15497680008411407,"26":0.140842005610466,"27":-0.18102188408374786,"28":0.12192408740520477,"29":-0.0596717931330204,"30":0.13368922472000122,"31":0.028798524290323257,"32":0.10618060827255249,"33":-0.17217880487442017,"34":0.11920294910669327,"35":-0.10052935034036636,"36":-0.03089083358645439,"37":0.004859532695263624,"38":-0.026136860251426697,"39":-0.08015976846218109,"40":0.10333959758281708,"41":-0.13601408898830414,"42":-0.03773244470357895,"43":0.024721533060073853,"44":0.027740182355046272,"45":0.019900504499673843,"46":0.11651221662759781,"47":0.09886345267295837,"48":0.16758236289024353,"49":0.07667741179466248,"50":0.08569962531328201,"51":-0.1608249694108963,"52":0.13128116726875305,"53":-0.1140122190117836,"54":-0.027535511180758476,"55":-0.17307239770889282,"56":-0.19834157824516296,"57":-0.19067345559597015,"58":0.013420512899756432,"59":-0.03153179958462715,"60":-0.21244880557060242,"61":-0.13637365400791168,"62":0.10326310992240906,"63":0.020083371549844742,"64":0.06979242712259293,"65":-0.15348118543624878,"66":0.03520037233829498,"67":-0.07776006311178207,"68":-0.044347021728754044,"69":-0.08902565389871597,"70":-0.0009728773729875684,"71":-0.10425101220607758,"72":-0.10746688395738602,"73":-0.0942469984292984,"74":-0.22083896398544312,"75":-0.07254544645547867,"76":-0.2189844846725464,"77":-0.23095905780792236,"78":-0.07807738333940506,"79":-0.24168244004249573,"80":-0.09092903137207031,"81":-0.1790805459022522,"82":0.14016835391521454,"83":-0.07051142305135727,"84":-0.11127060651779175,"85":0.020830782130360603,"86":0.15461482107639313,"87":-0.08214813470840454,"88":0.0300167053937912,"89":-0.13823416829109192,"90":0.0961826741695404,"91":0.17829065024852753,"92":0.01952170580625534,"93":-0.005989310797303915,"94":-0.10358160734176636,"95":0.08765919506549835,"96":-0.14411726593971252,"97":0.09385722875595093,"98":-0.16254808008670807,"99":-0.003395896637812257,"100":0.05616103112697601,"101":0.15436670184135437,"102":0.12766918540000916,"103":0.06303580850362778,"104":-0.20839473605155945,"105":-0.11375515162944794,"106":-0.14529019594192505,"107":-0.17048431932926178,"108":-0.04033748805522919,"109":-0.03342603147029877,"110":0.08770149201154709,"111":0.11184268444776535,"112":-0.0848085805773735,"113":-0.11168283224105835,"114":-0.1061244085431099,"115":-0.1295718103647232,"116":0.19842521846294403,"117":0.20728342235088348,"118":0.041900403797626495,"119":-0.005814246833324432,"120":0.08611481636762619,"121":-0.07707389444112778,"122":-0.1285635381937027,"123":-0.17639955878257751,"124":-0.030197490006685257,"125":-0.042633309960365295,"126":-0.15086282789707184,"127":0.22149862349033356,"128":0.04858160391449928,"129":0.03319219499826431,"130":0.08516515046358109,"131":0.022674275562167168,"132":0.1791059821844101,"133":0.05517599359154701,"134":-0.07317443192005157,"135":-0.17842085659503937,"136":-0.11780201643705368,"137":-0.1710289567708969,"138":-0.161642387509346,"139":-0.06565237045288086,"140":0.11992014944553375,"141":0.07258734107017517}},"13":{"bias":0.11141080409288406,"weights":{"0":0.13379889726638794,"1":-0.11166500300168991,"2":0.12518101930618286,"3":0.01055136602371931,"4":0.059877071529626846,"5":-0.1068200096487999,"6":0.02050473354756832,"7":0.18046079576015472,"8":0.12368269264698029,"9":0.06094580516219139,"10":0.03517243266105652,"11":-0.01473414059728384,"12":0.1410571038722992,"13":-0.07136208564043045,"14":-0.11012755334377289,"15":0.0008877303916960955,"16":-0.1451120227575302,"17":0.08380582928657532,"18":-0.1824062019586563,"19":0.1883285790681839,"20":0.0879150852560997,"21":0.047532353550195694,"22":-0.005556950345635414,"23":0.017615992575883865,"24":0.17486220598220825,"25":0.01132449321448803,"26":-0.20263825356960297,"27":-0.06429516524076462,"28":0.15795546770095825,"29":-0.16501303017139435,"30":0.03333050757646561,"31":0.021026646718382835,"32":0.19375945627689362,"33":-0.006882134824991226,"34":0.09945712983608246,"35":0.09833194315433502,"36":0.015350986272096634,"37":0.18370547890663147,"38":0.057646527886390686,"39":-0.16766050457954407,"40":-0.03007671982049942,"41":0.17703576385974884,"42":-0.12081773579120636,"43":0.015586050227284431,"44":0.0052911387756466866,"45":-0.08011973649263382,"46":0.1765890121459961,"47":-0.09962131828069687,"48":0.10748755186796188,"49":0.17962127923965454,"50":0.07702711224555969,"51":0.0358501598238945,"52":-0.16049179434776306,"53":0.24564187228679657,"54":0.01652589626610279,"55":0.19679129123687744,"56":-0.17186129093170166,"57":-0.155805766582489,"58":0.16941535472869873,"59":0.12090664356946945,"60":-0.17181046307086945,"61":0.1841048151254654,"62":0.16284312307834625,"63":-0.07683583348989487,"64":0.20754779875278473,"65":0.0071028065867722034,"66":-0.01904969848692417,"67":0.006948097143322229,"68":-0.04618660360574722,"69":0.1854133903980255,"70":0.2254098802804947,"71":0.08154486864805222,"72":-0.1819652020931244,"73":0.17374615371227264,"74":-0.1508311629295349,"75":0.018703382462263107,"76":0.17965500056743622,"77":-0.04950745776295662,"78":0.15560591220855713,"79":0.14137358963489532,"80":-0.1054961308836937,"81":0.09449365735054016,"82":-0.08931096643209457,"83":-0.15407748520374298,"84":0.0792996734380722,"85":0.04009046405553818,"86":0.010320096276700497,"87":0.07595604658126831,"88":0.04848296567797661,"89":-0.01830858178436756,"90":0.06512369960546494,"91":-0.12170596420764923,"92":-0.12369273602962494,"93":0.06285466253757477,"94":-0.059421271085739136,"95":-0.14050282537937164,"96":0.13424694538116455,"97":0.12265952676534653,"98":0.09340120851993561,"99":-0.10751348733901978,"100":-0.017370518296957016,"101":0.02226942591369152,"102":0.17450587451457977,"103":0.007143733557313681,"104":0.028331313282251358,"105":0.204170361161232,"106":-0.10266333073377609,"107":0.18492203950881958,"108":0.16730721294879913,"109":-0.07193610817193985,"110":-0.19202400743961334,"111":-0.385042279958725,"112":0.04541920870542526,"113":-0.08469591289758682,"114":-0.19906048476696014,"115":-0.0033688682597130537,"116":-0.20620259642601013,"117":0.14287857711315155,"118":-0.23113076388835907,"119":-0.18278177082538605,"120":0.008995932526886463,"121":0.11515772342681885,"122":0.1092025637626648,"123":0.11829512566328049,"124":0.1421682983636856,"125":0.16588380932807922,"126":-0.23185068368911743,"127":-0.1839241236448288,"128":-0.16626186668872833,"129":0.04603413864970207,"130":0.06686487793922424,"131":0.1433427631855011,"132":-0.009597915224730968,"133":0.13638749718666077,"134":-0.1705135703086853,"135":0.09890050441026688,"136":0.08529724180698395,"137":-0.1714470535516739,"138":0.06761069595813751,"139":0.1376432180404663,"140":0.16499672830104828,"141":0.02979758381843567}},"14":{"bias":-0.17631453275680542,"weights":{"0":0.13323648273944855,"1":-0.05320139601826668,"2":-0.16580109298229218,"3":0.16389846801757812,"4":-0.1349429488182068,"5":0.13915157318115234,"6":-0.043750736862421036,"7":0.004368436522781849,"8":-0.046339843422174454,"9":0.12556293606758118,"10":-0.06597942113876343,"11":-0.020459676161408424,"12":-0.18359240889549255,"13":-0.014855306595563889,"14":-0.17003463208675385,"15":0.029655814170837402,"16":0.042895637452602386,"17":0.10562607645988464,"18":-0.08271817862987518,"19":0.1903657168149948,"20":0.025584204122424126,"21":0.1569310575723648,"22":0.10964318364858627,"23":0.05431446433067322,"24":-0.13305987417697906,"25":-0.16254755854606628,"26":-0.06472459435462952,"27":0.12443806231021881,"28":-0.04979724436998367,"29":-0.055804863572120667,"30":0.20144139230251312,"31":0.05088673532009125,"32":0.16861803829669952,"33":-0.1648000329732895,"34":0.10088007152080536,"35":0.20051638782024384,"36":0.03935280069708824,"37":-0.13959844410419464,"38":-0.15564467012882233,"39":0.045642267912626266,"40":0.06621827185153961,"41":-0.1876208782196045,"42":0.15317152440547943,"43":0.01904437318444252,"44":0.001200591679662466,"45":0.06658901274204254,"46":0.13437716662883759,"47":0.1868397742509842,"48":0.18968991935253143,"49":0.18956732749938965,"50":0.05432773381471634,"51":0.0782369002699852,"52":0.031417977064847946,"53":0.07003559172153473,"54":0.033312782645225525,"55":-0.04050396382808685,"56":-0.03376983106136322,"57":-0.077651247382164,"58":0.134377583861351,"59":-0.017342543229460716,"60":-0.14054429531097412,"61":-0.0804043710231781,"62":-0.12100280821323395,"63":0.1895880252122879,"64":0.19334691762924194,"65":-0.12413053959608078,"66":0.00031587015837430954,"67":0.1221090704202652,"68":0.10975220799446106,"69":-0.03737705573439598,"70":0.011325901374220848,"71":0.10312748700380325,"72":-0.030649548396468163,"73":0.10892830789089203,"74":0.040092941373586655,"75":0.06189045310020447,"76":0.10802842676639557,"77":-0.010967481881380081,"78":0.1024070605635643,"79":0.10605937242507935,"80":0.09009208530187607,"81":-0.1759776622056961,"82":-0.02014893852174282,"83":0.020066892728209496,"84":0.09012706577777863,"85":-0.008247203193604946,"86":0.1548711061477661,"87":0.1134418472647667,"88":-0.19550947844982147,"89":-0.1761813759803772,"90":-0.19318844377994537,"91":-0.019033070653676987,"92":-0.16243533790111542,"93":-0.15384410321712494,"94":0.16502590477466583,"95":-0.1618708074092865,"96":-0.042505960911512375,"97":-0.09350304305553436,"98":0.095891073346138,"99":-0.13835246860980988,"100":-0.06314858794212341,"101":-0.007814990356564522,"102":0.12709379196166992,"103":-0.07822707295417786,"104":0.02354341559112072,"105":-0.1576450914144516,"106":-0.019614698365330696,"107":0.14182636141777039,"108":-0.10833649337291718,"109":-0.025036538019776344,"110":-0.10523952543735504,"111":-0.15409818291664124,"112":-0.05040813609957695,"113":-0.07980852574110031,"114":-0.0344562754034996,"115":0.11212990432977676,"116":-0.004169636406004429,"117":-0.11514786630868912,"118":0.01776045188307762,"119":-0.20863023400306702,"120":0.02330496720969677,"121":-0.07262641936540604,"122":-0.0330539345741272,"123":-0.014441413804888725,"124":0.09132684767246246,"125":0.027716271579265594,"126":0.1346963346004486,"127":-0.2094580978155136,"128":-0.19097018241882324,"129":-0.06126691773533821,"130":-0.173469677567482,"131":-0.018983609974384308,"132":0.05680195242166519,"133":-0.1797223538160324,"134":-0.09305617213249207,"135":-0.12608188390731812,"136":0.11389325559139252,"137":0.0030087814666330814,"138":0.04238889366388321,"139":-0.18453578650951385,"140":-0.14701275527477264,"141":0.08936265856027603}},"15":{"bias":-0.056416675448417664,"weights":{"0":-0.09759388864040375,"1":0.11822161078453064,"2":0.1964438557624817,"3":-0.09156344085931778,"4":-0.17907632887363434,"5":-0.001491349539719522,"6":0.053267091512680054,"7":-0.11574441939592361,"8":0.08955846726894379,"9":-0.09047788381576538,"10":-0.13486748933792114,"11":-0.2188512682914734,"12":0.16862577199935913,"13":0.13683028519153595,"14":-0.19758419692516327,"15":-0.007380080409348011,"16":-0.1320136934518814,"17":-0.1917339265346527,"18":0.018728038296103477,"19":-0.18337620794773102,"20":0.08769416809082031,"21":-0.15902483463287354,"22":-0.07370029389858246,"23":-0.15012776851654053,"24":-0.1817595362663269,"25":-0.13795346021652222,"26":0.17373454570770264,"27":-0.24920280277729034,"28":-0.15608128905296326,"29":0.037751879543066025,"30":-0.02543972060084343,"31":0.0836784690618515,"32":-0.14923720061779022,"33":-0.18537117540836334,"34":0.035543814301490784,"35":-0.0927824005484581,"36":0.09500902146100998,"37":0.07894296944141388,"38":-0.1275683492422104,"39":0.09704313427209854,"40":0.13747230172157288,"41":-0.057027824223041534,"42":-0.11392064392566681,"43":-0.060471028089523315,"44":0.06762198358774185,"45":0.0931665301322937,"46":-0.03991248458623886,"47":0.014223635196685791,"48":-0.1711161881685257,"49":-0.0654965415596962,"50":-0.022930417209863663,"51":-0.033936627209186554,"52":-0.07743803411722183,"53":0.03019855171442032,"54":-0.16703921556472778,"55":0.06317798793315887,"56":-0.03450429439544678,"57":-0.07007917016744614,"58":0.18751384317874908,"59":0.14279332756996155,"60":-0.11408445984125137,"61":-0.18000708520412445,"62":-0.04573316499590874,"63":-0.028725991025567055,"64":-0.09450183808803558,"65":0.003674034960567951,"66":-0.018472908064723015,"67":0.04762944579124451,"68":-0.1686743050813675,"69":-0.0023760658223181963,"70":0.09577357023954391,"71":0.012566948309540749,"72":-0.15325355529785156,"73":0.07122714072465897,"74":-0.23783951997756958,"75":-0.21603578329086304,"76":-0.05187603831291199,"77":0.09359201788902283,"78":0.12766140699386597,"79":0.06558893620967865,"80":-0.15364664793014526,"81":-0.168254092335701,"82":0.151785746216774,"83":-0.0917166993021965,"84":-0.0935741513967514,"85":-0.1838509887456894,"86":-0.19178442656993866,"87":0.032210007309913635,"88":0.16659413278102875,"89":-0.12251021713018417,"90":0.18110902607440948,"91":-0.12292146682739258,"92":0.16636613011360168,"93":0.0939774289727211,"94":0.13013094663619995,"95":-0.10375061631202698,"96":0.10628527402877808,"97":-0.15550316870212555,"98":-0.14151950180530548,"99":-0.07287819683551788,"100":-0.05339505895972252,"101":0.07184053957462311,"102":0.1285950243473053,"103":0.05373852327466011,"104":0.10503613948822021,"105":-0.06863971799612045,"106":0.14866942167282104,"107":0.0928596779704094,"108":0.1786651313304901,"109":-0.15328027307987213,"110":-0.03546790033578873,"111":-0.007116727530956268,"112":-0.09240315109491348,"113":0.2240559458732605,"114":-0.06681216508150101,"115":0.03014310449361801,"116":0.005186852533370256,"117":0.1481114774942398,"118":0.2227725386619568,"119":0.1569606065750122,"120":0.18448570370674133,"121":0.09245729446411133,"122":0.14374908804893494,"123":0.19036057591438293,"124":0.05229315534234047,"125":-0.1665372997522354,"126":0.14034691452980042,"127":-0.0011930713662877679,"128":0.09033850580453873,"129":-0.08028155565261841,"130":0.22312305867671967,"131":-0.07296259701251984,"132":0.17818105220794678,"133":0.027815205976366997,"134":0.027773922309279442,"135":-0.059296153485774994,"136":-0.13601577281951904,"137":-0.1447138637304306,"138":-0.14978307485580444,"139":0.16511932015419006,"140":-0.11042361706495285,"141":-0.0027140197344124317}},"16":{"bias":-0.020176932215690613,"weights":{"0":-0.31753453612327576,"1":-0.09227527678012848,"2":-0.15626803040504456,"3":-0.18193264305591583,"4":0.042214713990688324,"5":0.02111341804265976,"6":-0.03597842901945114,"7":-0.06124310567975044,"8":0.06588862836360931,"9":-0.152046799659729,"10":-0.17187467217445374,"11":0.035484567284584045,"12":-0.04127022996544838,"13":-0.13402844965457916,"14":-0.005652888678014278,"15":0.1452731490135193,"16":0.057349562644958496,"17":0.08372178673744202,"18":-0.17614439129829407,"19":0.0564710833132267,"20":-0.010538158006966114,"21":0.000028866876164101996,"22":0.06552369147539139,"23":-0.018070382997393608,"24":0.13667574524879456,"25":0.11184671521186829,"26":0.16076794266700745,"27":-0.11423488706350327,"28":-0.040623411536216736,"29":-0.09146302938461304,"30":-0.21127651631832123,"31":0.027455855160951614,"32":-0.010764148086309433,"33":-0.11012659966945648,"34":-0.0063857403583824635,"35":-0.16043220460414886,"36":-0.19940952956676483,"37":-0.12675610184669495,"38":-0.02359415404498577,"39":0.20983979105949402,"40":0.09841886162757874,"41":0.05162234604358673,"42":0.11606953293085098,"43":-0.05072726681828499,"44":0.15844275057315826,"45":0.14740514755249023,"46":-0.164652019739151,"47":-0.014912539161741734,"48":0.00787469930946827,"49":0.18188759684562683,"50":0.021721623837947845,"51":0.18036001920700073,"52":0.0003564891521818936,"53":-0.10822355002164841,"54":0.053102411329746246,"55":-0.019818106666207314,"56":-0.07167673856019974,"57":0.12187229096889496,"58":0.19651971757411957,"59":0.1843407154083252,"60":0.004206978250294924,"61":-0.007254112511873245,"62":0.0913514494895935,"63":0.006039221305400133,"64":0.125713050365448,"65":-0.05896220728754997,"66":0.037855688482522964,"67":0.21185310184955597,"68":0.0355803556740284,"69":-0.15011706948280334,"70":0.09308895468711853,"71":-0.012350483797490597,"72":-0.016047412529587746,"73":0.22447486221790314,"74":0.07228132337331772,"75":0.21113549172878265,"76":0.17514565587043762,"77":-0.07878983020782471,"78":0.12995092570781708,"79":-0.0335029698908329,"80":0.12732183933258057,"81":0.06965739279985428,"82":0.023067062720656395,"83":-0.03498704731464386,"84":-0.06475183367729187,"85":0.09774065762758255,"86":-0.13499043881893158,"87":-0.07844391465187073,"88":-0.13688181340694427,"89":0.1280406266450882,"90":0.14754188060760498,"91":0.07491009682416916,"92":0.085873082280159,"93":0.13543272018432617,"94":0.14818327128887177,"95":-0.12510262429714203,"96":-0.11581121385097504,"97":-0.12553218007087708,"98":0.18052317202091217,"99":0.20330552756786346,"100":-0.17977669835090637,"101":0.16035939753055573,"102":0.09706024825572968,"103":0.0031954410951584578,"104":0.10768027603626251,"105":-0.07386617362499237,"106":-0.17359954118728638,"107":0.03995310142636299,"108":0.07072869688272476,"109":0.1149628758430481,"110":0.060978811234235764,"111":0.2322838455438614,"112":0.07927583158016205,"113":0.14895358681678772,"114":-0.08984795212745667,"115":0.22969765961170197,"116":0.14871187508106232,"117":-0.11968594789505005,"118":0.22312839329242706,"119":0.1550668329000473,"120":0.19240263104438782,"121":-0.08517361432313919,"122":-0.15634582936763763,"123":0.10056554526090622,"124":-0.08595535904169083,"125":0.19085749983787537,"126":0.004496491514146328,"127":-0.0976097509264946,"128":-0.15627877414226532,"129":0.19661681354045868,"130":-0.15935423970222473,"131":0.18279707431793213,"132":0.12703824043273926,"133":0.05112329497933388,"134":0.21133437752723694,"135":0.1800871342420578,"136":0.0825340673327446,"137":0.2044885754585266,"138":-0.11691773682832718,"139":0.008736752904951572,"140":0.1163102462887764,"141":-0.1549132913351059}},"17":{"bias":0.05504464730620384,"weights":{"0":0.1642121821641922,"1":0.17144571244716644,"2":0.003879851195961237,"3":-0.017085714265704155,"4":0.13639260828495026,"5":-0.12870416045188904,"6":0.1286347359418869,"7":-0.06812983006238937,"8":0.05916941538453102,"9":0.1985199898481369,"10":-0.10712805390357971,"11":-0.15726980566978455,"12":0.09393484890460968,"13":0.17164458334445953,"14":0.18424151837825775,"15":0.005616126116365194,"16":-0.18050755560398102,"17":-0.10467885434627533,"18":-0.08080249279737473,"19":0.19373604655265808,"20":-0.1538514494895935,"21":-0.1697511523962021,"22":-0.045832548290491104,"23":-0.16152969002723694,"24":0.11107984930276871,"25":0.18828478455543518,"26":0.1669287234544754,"27":-0.25090864300727844,"28":0.07939963042736053,"29":0.06353213638067245,"30":-0.09453468769788742,"31":0.04841173440217972,"32":-0.04256133362650871,"33":-0.015115761198103428,"34":-0.16962648928165436,"35":0.12726913392543793,"36":0.03945581242442131,"37":0.11118679493665695,"38":0.05640050023794174,"39":0.01886770687997341,"40":-0.1371399611234665,"41":-0.10365497320890427,"42":-0.05293481424450874,"43":-0.16111253201961517,"44":-0.2142503261566162,"45":0.0691877231001854,"46":0.08494656533002853,"47":0.07272382080554962,"48":-0.047579847276210785,"49":-0.09224992990493774,"50":-0.14666026830673218,"51":0.04941120743751526,"52":-0.21088066697120667,"53":-0.1408039778470993,"54":-0.12619052827358246,"55":-0.0808694139122963,"56":0.1097569689154625,"57":0.10186518728733063,"58":0.0049689593724906445,"59":-0.021114472299814224,"60":-0.03771718591451645,"61":0.03992938622832298,"62":0.11781094968318939,"63":-0.14084146916866302,"64":0.030987726524472237,"65":-0.06813845783472061,"66":0.09469525516033173,"67":-0.010522955097258091,"68":-0.16092826426029205,"69":-0.10537008941173553,"70":-0.06642373651266098,"71":-0.12959489226341248,"72":-0.08097348362207413,"73":0.05866008996963501,"74":-0.12199968844652176,"75":-0.14919142425060272,"76":-0.09352538734674454,"77":-0.11456145346164703,"78":-0.06824934482574463,"79":0.04832828789949417,"80":0.17561407387256622,"81":-0.067930668592453,"82":0.1697773039340973,"83":0.1299283504486084,"84":-0.14147064089775085,"85":-0.019751878455281258,"86":0.12597112357616425,"87":0.03016495145857334,"88":-0.1586943119764328,"89":0.10715251415967941,"90":-0.11595116555690765,"91":-0.16641153395175934,"92":-0.10013076663017273,"93":-0.15573829412460327,"94":-0.06725848466157913,"95":-0.09614580869674683,"96":0.13925467431545258,"97":0.14116989076137543,"98":-0.20187409222126007,"99":-0.19742973148822784,"100":0.02509857527911663,"101":-0.10451843589544296,"102":-0.13694383203983307,"103":-0.11384888738393784,"104":0.1819671094417572,"105":-0.1972503662109375,"106":-0.18509948253631592,"107":-0.14040392637252808,"108":0.14598825573921204,"109":0.02811732143163681,"110":0.25253182649612427,"111":0.08361559361219406,"112":0.07012028247117996,"113":0.09435955435037613,"114":0.025537772104144096,"115":0.11516868323087692,"116":-0.04007793590426445,"117":0.13567741215229034,"118":-0.012665160931646824,"119":-0.012277679517865181,"120":0.005721625406295061,"121":0.046643711626529694,"122":0.19411058723926544,"123":-0.12051528692245483,"124":-0.049000371247529984,"125":0.09047636389732361,"126":0.16355198621749878,"127":0.020040258765220642,"128":-0.035512760281562805,"129":0.06817855685949326,"130":0.013419009745121002,"131":-0.0937458947300911,"132":-0.10185803472995758,"133":-0.0967136025428772,"134":0.005903521087020636,"135":0.07102235406637192,"136":-0.0637330487370491,"137":-0.15651074051856995,"138":-0.12612929940223694,"139":0.01588590256869793,"140":0.03211717680096626,"141":-0.15672829747200012}},"18":{"bias":0.019206227734684944,"weights":{"0":-0.21218425035476685,"1":-0.15847507119178772,"2":-0.13842067122459412,"3":-0.2121763825416565,"4":-0.19086502492427826,"5":-0.0660477802157402,"6":0.01910937950015068,"7":-0.12292061746120453,"8":-0.03221869468688965,"9":0.08722788095474243,"10":-0.06889037042856216,"11":0.009994474239647388,"12":-0.1395501345396042,"13":-0.12940193712711334,"14":-0.11349716782569885,"15":0.11128184199333191,"16":0.09228353202342987,"17":-0.21240396797657013,"18":-0.16859744489192963,"19":0.0732199102640152,"20":-0.1992177963256836,"21":0.18376880884170532,"22":0.040914710611104965,"23":0.08910991251468658,"24":0.057253241539001465,"25":-0.012177975848317146,"26":0.0780867338180542,"27":0.11572082340717316,"28":-0.11553945392370224,"29":-0.043110981583595276,"30":-0.04654349386692047,"31":0.17765109241008759,"32":0.04345531016588211,"33":-0.008769341744482517,"34":-0.03170467168092728,"35":0.05554265156388283,"36":-0.022837994620203972,"37":0.1671757996082306,"38":-0.14216600358486176,"39":-0.1717657595872879,"40":-0.16671162843704224,"41":-0.00137514085508883,"42":-0.12636883556842804,"43":-0.20088152587413788,"44":0.20544765889644623,"45":-0.08093127608299255,"46":-0.00791348610073328,"47":-0.05855072662234306,"48":0.14720110595226288,"49":-0.07076280564069748,"50":-0.11329635232686996,"51":-0.11110837757587433,"52":0.10609551519155502,"53":0.052215009927749634,"54":0.08645188063383102,"55":0.0733138844370842,"56":0.11872230470180511,"57":-0.0675705298781395,"58":-0.04573475942015648,"59":-0.1375148445367813,"60":-0.07505884021520615,"61":0.04002949595451355,"62":0.12761779129505157,"63":0.05251840129494667,"64":-0.18856079876422882,"65":-0.09171657264232635,"66":0.03574753180146217,"67":0.17814065515995026,"68":0.18052305281162262,"69":0.12093321233987808,"70":-0.14414002001285553,"71":0.1877577006816864,"72":0.1020502895116806,"73":-0.08471820503473282,"74":-0.1391582041978836,"75":-0.0008452557376585901,"76":0.030661754310131073,"77":-0.06929999589920044,"78":0.010297829285264015,"79":-0.06633210927248001,"80":0.015548230148851871,"81":-0.053133826702833176,"82":-0.17067471146583557,"83":0.15559175610542297,"84":-0.10157796740531921,"85":0.09173537790775299,"86":0.055084265768527985,"87":0.11654339730739594,"88":0.1504671722650528,"89":-0.15192024409770966,"90":0.11280335485935211,"91":-0.0084974505007267,"92":0.05048442259430885,"93":0.015935692936182022,"94":-0.08698578923940659,"95":0.14746055006980896,"96":-0.08791882544755936,"97":0.04044216126203537,"98":0.19026747345924377,"99":-0.05710462108254433,"100":0.05438796058297157,"101":-0.040856365114450455,"102":-0.04302806407213211,"103":-0.12835387885570526,"104":0.104537732899189,"105":-0.011069418862462044,"106":-0.08963795751333237,"107":-0.045725949108600616,"108":-0.1723838895559311,"109":-0.06530337780714035,"110":-0.11338105797767639,"111":0.08026015758514404,"112":0.04309394583106041,"113":0.09921062737703323,"114":0.00046837766421958804,"115":0.020064804702997208,"116":0.020713940262794495,"117":0.013536161743104458,"118":0.11643116176128387,"119":0.06662394851446152,"120":-0.07348194718360901,"121":0.12611962854862213,"122":0.141019806265831,"123":0.1474483162164688,"124":0.20521990954875946,"125":-0.17345483601093292,"126":0.08119486272335052,"127":-0.1443156898021698,"128":-0.07900271564722061,"129":0.03780698403716087,"130":0.0692332312464714,"131":0.22419749200344086,"132":0.15475234389305115,"133":0.1787390559911728,"134":-0.008493887260556221,"135":0.04795464873313904,"136":-0.1743333786725998,"137":-0.004240717738866806,"138":0.07138503342866898,"139":0.0045551760122179985,"140":-0.17904561758041382,"141":0.05861246585845947}},"19":{"bias":0.09550264477729797,"weights":{"0":0.10264582186937332,"1":-0.12914890050888062,"2":-0.10084963589906693,"3":0.11520152539014816,"4":-0.07549230009317398,"5":-0.15604989230632782,"6":0.18593502044677734,"7":-0.06596492975950241,"8":0.1618770956993103,"9":-0.011015080846846104,"10":-0.09000822901725769,"11":-0.09331845492124557,"12":-0.1296803057193756,"13":-0.17093496024608612,"14":0.08556464314460754,"15":0.07909943908452988,"16":0.005435621365904808,"17":-0.0300116166472435,"18":0.062145642936229706,"19":0.10975813120603561,"20":-0.0886465460062027,"21":0.19975757598876953,"22":-0.03515966609120369,"23":0.02974194474518299,"24":0.17275172472000122,"25":0.0342148132622242,"26":-0.17843380570411682,"27":0.1576882153749466,"28":0.14925193786621094,"29":0.20353473722934723,"30":0.05816968157887459,"31":0.07080649584531784,"32":-0.06476596742868423,"33":0.11275921016931534,"34":0.10544101893901825,"35":-0.1588919460773468,"36":0.012313215993344784,"37":0.15110032260417938,"38":0.0018530330853536725,"39":0.06016989424824715,"40":-0.010150914080440998,"41":-0.04722100868821144,"42":0.20272450149059296,"43":0.016716230660676956,"44":0.21146714687347412,"45":-0.11207164824008942,"46":0.08144039660692215,"47":-0.13266104459762573,"48":0.18038788437843323,"49":0.15329162776470184,"50":0.012564774602651596,"51":0.10717188566923141,"52":0.027629708871245384,"53":-0.16361671686172485,"54":-0.1171940416097641,"55":0.04008585587143898,"56":-0.029071003198623657,"57":0.10277938097715378,"58":0.06285074353218079,"59":0.02986769750714302,"60":0.033326443284749985,"61":-0.16876159608364105,"62":0.04326273128390312,"63":0.18605318665504456,"64":-0.08810722082853317,"65":-0.07911595702171326,"66":0.0218325387686491,"67":0.19839277863502502,"68":0.19714179635047913,"69":-0.035723693668842316,"70":-0.09093327820301056,"71":0.010809209197759628,"72":-0.09573900699615479,"73":-0.1913323700428009,"74":0.06878600269556046,"75":-0.15845231711864471,"76":-0.08930984884500504,"77":-0.13984045386314392,"78":-0.022117555141448975,"79":0.1889025717973709,"80":0.058740902692079544,"81":0.1486307978630066,"82":0.14319759607315063,"83":-0.12577791512012482,"84":-0.16093824803829193,"85":0.04865174740552902,"86":-0.11098337173461914,"87":0.10638516396284103,"88":-0.019635546952486038,"89":-0.041443657130002975,"90":-0.08088651299476624,"91":-0.018451737239956856,"92":0.019323110580444336,"93":-0.1653488278388977,"94":-0.16386689245700836,"95":0.05532994121313095,"96":0.1339525282382965,"97":-0.010344388894736767,"98":0.12798349559307098,"99":0.03532660752534866,"100":-0.0011211897945031524,"101":-0.081186443567276,"102":-0.05792847275733948,"103":-0.1740017831325531,"104":-0.12045809626579285,"105":0.09462156146764755,"106":0.02176683396100998,"107":-0.09803968667984009,"108":0.14645418524742126,"109":-0.11555749922990799,"110":-0.04005151987075806,"111":-0.2715190052986145,"112":-0.14464132487773895,"113":-0.009987074881792068,"114":0.11444723606109619,"115":-0.09163565933704376,"116":-0.04445083066821098,"117":-0.1973913162946701,"118":-0.169903963804245,"119":-0.029979418963193893,"120":-0.07835759222507477,"121":-0.12701284885406494,"122":0.05647775158286095,"123":0.04575520381331444,"124":0.003747655777260661,"125":0.11469519138336182,"126":-0.13530336320400238,"127":-0.18187463283538818,"128":-0.010520667769014835,"129":-0.0702107772231102,"130":0.03712203726172447,"131":-0.11265911906957626,"132":0.1250678151845932,"133":-0.2104770988225937,"134":0.03208379074931145,"135":0.12043961137533188,"136":-0.15092475712299347,"137":-0.13519321382045746,"138":0.09790675342082977,"139":-0.20275144279003143,"140":0.009628727100789547,"141":-0.061215903609991074}},"20":{"bias":0.0395686998963356,"weights":{"0":0.09975980967283249,"1":0.02310400828719139,"2":0.06425128132104874,"3":-0.05508141592144966,"4":-0.03967680782079697,"5":0.04815200716257095,"6":-0.17390033602714539,"7":0.014021525159478188,"8":-0.1854935735464096,"9":-0.0037977201864123344,"10":-0.07612710446119308,"11":0.1669931411743164,"12":-0.006372608710080385,"13":-0.07155431061983109,"14":-0.08127405494451523,"15":0.18590034544467926,"16":-0.010519720613956451,"17":-0.04337004944682121,"18":-0.07890906184911728,"19":0.14341109991073608,"20":0.06050334498286247,"21":-0.1417645364999771,"22":0.010605068877339363,"23":0.007311992347240448,"24":0.029036443680524826,"25":-0.08479717373847961,"26":-0.09427506476640701,"27":0.09371697157621384,"28":-0.06307011097669601,"29":-0.12803246080875397,"30":-0.14529040455818176,"31":-0.13489800691604614,"32":-0.11505047231912613,"33":-0.10549280047416687,"34":-0.02183721214532852,"35":0.13989658653736115,"36":-0.0024640136398375034,"37":-0.030955402180552483,"38":0.053376972675323486,"39":0.03163190558552742,"40":0.07989679276943207,"41":-0.10382751375436783,"42":0.1953665018081665,"43":-0.1783125251531601,"44":0.2259758710861206,"45":0.026708265766501427,"46":0.15379521250724792,"47":-0.11875296384096146,"48":-0.14286842942237854,"49":-0.0736059620976448,"50":0.03184109926223755,"51":0.06844832003116608,"52":-0.06498274952173233,"53":0.04785481095314026,"54":-0.05675382539629936,"55":-0.07129345834255219,"56":0.0836743637919426,"57":0.052296705543994904,"58":0.1525210440158844,"59":0.08070328831672668,"60":0.1608465611934662,"61":0.16431695222854614,"62":-0.047923751175403595,"63":-0.005559825804084539,"64":-0.02488725632429123,"65":-0.09095171838998795,"66":0.018693478778004646,"67":-0.12704209983348846,"68":0.10872156918048859,"69":-0.06918849050998688,"70":-0.026180120185017586,"71":-0.04327524080872536,"72":-0.01635347679257393,"73":0.013871291652321815,"74":-0.052450988441705704,"75":-0.1571304351091385,"76":0.020277338102459908,"77":0.0015959077281877398,"78":-0.09403432905673981,"79":-0.009233416058123112,"80":0.007228166330605745,"81":-0.16245554387569427,"82":0.03290220722556114,"83":0.1546233594417572,"84":-0.13093355298042297,"85":0.10611012578010559,"86":0.1915387213230133,"87":-0.05808127298951149,"88":0.0889224037528038,"89":-0.15421122312545776,"90":-0.05964795872569084,"91":-0.07297266274690628,"92":0.04811575263738632,"93":-0.15100660920143127,"94":0.0046916198916733265,"95":0.012695038691163063,"96":0.196833536028862,"97":0.1710631400346756,"98":0.06196513772010803,"99":-0.09350329637527466,"100":-0.18180227279663086,"101":0.0857364758849144,"102":-0.05019105598330498,"103":0.04252525791525841,"104":-0.1409444361925125,"105":0.16261756420135498,"106":-0.09602472186088562,"107":0.08853170275688171,"108":-0.16136594116687775,"109":0.10054239630699158,"110":-0.06069803237915039,"111":-0.030559329316020012,"112":-0.1563941240310669,"113":-0.08078701049089432,"114":0.004662546794861555,"115":-0.14744214713573456,"116":0.06699983030557632,"117":-0.14531274139881134,"118":-0.12314420938491821,"119":-0.18623040616512299,"120":0.12107835710048676,"121":-0.1229015439748764,"122":0.06858202815055847,"123":-0.025430066511034966,"124":0.11784251779317856,"125":-0.21768710017204285,"126":-0.11880955100059509,"127":0.04864008352160454,"128":-0.05982446298003197,"129":0.04053827002644539,"130":-0.13992616534233093,"131":0.06781423091888428,"132":-0.12228254973888397,"133":0.009397352114319801,"134":0.026432503014802933,"135":0.08019806444644928,"136":0.07015332579612732,"137":-0.1643805205821991,"138":-0.18416547775268555,"139":-0.21951358020305634,"140":0.02900938130915165,"141":0.06392575055360794}},"21":{"bias":0.0811949372291565,"weights":{"0":-0.06902112811803818,"1":-0.16688509285449982,"2":0.05273681506514549,"3":0.019987480714917183,"4":-0.0785587802529335,"5":0.1470777839422226,"6":0.11748599261045456,"7":-0.11362529546022415,"8":0.1846073567867279,"9":-0.07924574613571167,"10":0.023415924981236458,"11":-0.15715809166431427,"12":0.01205344870686531,"13":-0.02629411779344082,"14":-0.17926079034805298,"15":-0.08778226375579834,"16":-0.03935643285512924,"17":0.056197021156549454,"18":0.13357703387737274,"19":-0.18420615792274475,"20":0.10306014120578766,"21":-0.10373154282569885,"22":-0.13702379167079926,"23":-0.006787747144699097,"24":0.1689206212759018,"25":-0.17488019168376923,"26":0.15315544605255127,"27":-0.05039078742265701,"28":0.07263337075710297,"29":-0.10876215994358063,"30":-0.18032369017601013,"31":0.022909140214323997,"32":0.18278805911540985,"33":-0.15749682486057281,"34":-0.07947302609682083,"35":-0.01886456273496151,"36":0.1098707988858223,"37":0.1762712448835373,"38":-0.14415282011032104,"39":0.08431045711040497,"40":-0.047663092613220215,"41":-0.05237678065896034,"42":0.037281107157468796,"43":0.14743977785110474,"44":-0.20060768723487854,"45":0.043994925916194916,"46":0.0850701779127121,"47":-0.07427702099084854,"48":0.17655204236507416,"49":0.1394224762916565,"50":-0.13223770260810852,"51":0.14525838196277618,"52":0.10994777083396912,"53":0.03549036383628845,"54":-0.017019357532262802,"55":0.10195621848106384,"56":-0.15740597248077393,"57":0.0014810276916250587,"58":0.032803524285554886,"59":-0.10373010486364365,"60":0.03125507012009621,"61":-0.08769337087869644,"62":-0.18197673559188843,"63":-0.0183916836977005,"64":0.14343422651290894,"65":-0.005121052730828524,"66":-0.20068161189556122,"67":0.17801983654499054,"68":0.1700042188167572,"69":0.12135335057973862,"70":0.09930425882339478,"71":-0.10059115290641785,"72":-0.07943830639123917,"73":-0.14335879683494568,"74":0.17745336890220642,"75":-0.02964800037443638,"76":0.18068917095661163,"77":0.14798247814178467,"78":-0.10173691064119339,"79":0.1922367960214615,"80":0.19459787011146545,"81":-0.010407576337456703,"82":-0.06170631945133209,"83":-0.11963783204555511,"84":0.13407647609710693,"85":0.07275957614183426,"86":-0.01793736405670643,"87":0.18127012252807617,"88":0.011901173740625381,"89":0.016164297237992287,"90":-0.15261924266815186,"91":0.007548424880951643,"92":-0.07509537041187286,"93":0.14564001560211182,"94":-0.15209659934043884,"95":-0.0704718604683876,"96":0.03747786954045296,"97":-0.06985565274953842,"98":-0.10898612439632416,"99":0.058186259120702744,"100":-0.05570938065648079,"101":-0.12502405047416687,"102":0.09944038093090057,"103":-0.060309600085020065,"104":-0.19211815297603607,"105":-0.18818335235118866,"106":0.06003890186548233,"107":-0.04989326745271683,"108":0.015462185256183147,"109":0.008202288299798965,"110":-0.08284255117177963,"111":0.04614081233739853,"112":0.13348934054374695,"113":0.1744791567325592,"114":0.04246552288532257,"115":0.0475558377802372,"116":-0.1176978275179863,"117":0.09108038991689682,"118":0.08709654957056046,"119":0.15693682432174683,"120":-0.21956828236579895,"121":0.15059180557727814,"122":0.06920335441827774,"123":0.03653319925069809,"124":0.16998013854026794,"125":-0.10960476845502853,"126":-0.20183274149894714,"127":-0.13458144664764404,"128":-0.14617091417312622,"129":-0.1931474506855011,"130":-0.11071110516786575,"131":0.0999479591846466,"132":0.08977820724248886,"133":-0.15271343290805817,"134":-0.15282541513442993,"135":-0.08597109466791153,"136":0.036515433341264725,"137":-0.030782071873545647,"138":0.12234969437122345,"139":0.01888810470700264,"140":-0.0676669031381607,"141":-0.1511744111776352}},"22":{"bias":0.06976304203271866,"weights":{"0":0.18423961102962494,"1":-0.11805982142686844,"2":-0.15986719727516174,"3":0.06471576541662216,"4":-0.09669751673936844,"5":-0.06997822970151901,"6":-0.04335695132613182,"7":0.004389381036162376,"8":0.16292527318000793,"9":0.17120246589183807,"10":0.06844961643218994,"11":-0.03337908536195755,"12":-0.09964005649089813,"13":-0.15804412961006165,"14":0.07705732434988022,"15":-0.16691800951957703,"16":0.1333845853805542,"17":-0.035452261567115784,"18":0.015840180218219757,"19":-0.07000607997179031,"20":0.19086986780166626,"21":0.11278287321329117,"22":-0.1639275848865509,"23":0.10384315997362137,"24":0.0487372986972332,"25":-0.1447448581457138,"26":0.1239607036113739,"27":-0.024485433474183083,"28":0.07830475270748138,"29":0.112816222012043,"30":-0.20038092136383057,"31":0.12637543678283691,"32":0.12885363399982452,"33":0.18216471374034882,"34":0.007025773171335459,"35":0.012584283947944641,"36":0.0982130616903305,"37":0.0313885323703289,"38":-0.12414426356554031,"39":-0.21713422238826752,"40":-0.14924386143684387,"41":0.16798371076583862,"42":-0.022767584770917892,"43":-0.1534980684518814,"44":0.20118768513202667,"45":0.0894344225525856,"46":0.0012442165752872825,"47":-0.05595795810222626,"48":-0.07626338303089142,"49":-0.07023908197879791,"50":0.014690177515149117,"51":0.021301288157701492,"52":-0.18990376591682434,"53":0.058071866631507874,"54":0.17810454964637756,"55":0.0981636792421341,"56":-0.11602700501680374,"57":0.1439811885356903,"58":0.00893482007086277,"59":0.08815007656812668,"60":-0.033104266971349716,"61":0.006893361918628216,"62":0.1445976346731186,"63":-0.11646080017089844,"64":0.038188233971595764,"65":0.2074749916791916,"66":-0.06801259517669678,"67":0.1121804416179657,"68":-0.16700977087020874,"69":0.02432360127568245,"70":0.13133345544338226,"71":0.22203458845615387,"72":-0.17203186452388763,"73":0.09090971201658249,"74":0.18330983817577362,"75":-0.0029729469679296017,"76":0.1058729737997055,"77":-0.062106482684612274,"78":-0.1276358962059021,"79":0.028096390888094902,"80":0.04330335557460785,"81":0.026967056095600128,"82":-0.061491359025239944,"83":-0.13342991471290588,"84":-0.18393932282924652,"85":-0.03654367849230766,"86":-0.004393896088004112,"87":0.02281022071838379,"88":0.18175773322582245,"89":0.035396408289670944,"90":0.1273922175168991,"91":0.0005493490607477725,"92":-0.00789615698158741,"93":-0.1497192680835724,"94":-0.09305093437433243,"95":-0.10498622804880142,"96":0.16829536855220795,"97":0.1382923424243927,"98":0.07937762886285782,"99":0.006106765940785408,"100":0.1978827714920044,"101":-0.18123912811279297,"102":-0.0424940325319767,"103":-0.05999971553683281,"104":0.06499073654413223,"105":0.0030180576723068953,"106":0.1318933367729187,"107":0.06667575240135193,"108":0.15667876601219177,"109":0.18718843162059784,"110":0.13393983244895935,"111":-0.2698259651660919,"112":-0.21880663931369781,"113":-0.1283774971961975,"114":-0.09286035597324371,"115":0.0917300134897232,"116":-0.01849179156124592,"117":-0.17638716101646423,"118":-0.2220165878534317,"119":0.12628252804279327,"120":-0.1636897176504135,"121":0.04883856326341629,"122":0.12534373998641968,"123":0.08091500401496887,"124":0.14312808215618134,"125":0.0872456431388855,"126":-0.013067455030977726,"127":-0.13825206458568573,"128":-0.2067348062992096,"129":-0.20033979415893555,"130":0.162599578499794,"131":-0.16270045936107635,"132":0.17604166269302368,"133":-0.1363629400730133,"134":-0.19606228172779083,"135":0.08629541099071503,"136":0.06286023557186127,"137":-0.10840382426977158,"138":-0.007591079920530319,"139":0.05954780802130699,"140":-0.031690891832113266,"141":-0.11109378933906555}},"23":{"bias":0.05428140610456467,"weights":{"0":0.05030205473303795,"1":-0.05707097426056862,"2":-0.062330685555934906,"3":-0.1109846755862236,"4":-0.20914869010448456,"5":-0.19158899784088135,"6":-0.07921846210956573,"7":-0.0008572037913836539,"8":0.15248118340969086,"9":-0.10529571771621704,"10":-0.012359749525785446,"11":0.003393058432266116,"12":-0.17456740140914917,"13":0.08306180685758591,"14":0.020581629127264023,"15":-0.09033587574958801,"16":-0.09977119415998459,"17":0.1048978641629219,"18":-0.20077665150165558,"19":-0.08494538813829422,"20":-0.1977367103099823,"21":-0.0007976028718985617,"22":-0.15894578397274017,"23":-0.10400311648845673,"24":-0.18275213241577148,"25":0.1279306411743164,"26":-0.015004429966211319,"27":-0.056585561484098434,"28":-0.07789389044046402,"29":-0.046995606273412704,"30":-0.1018892154097557,"31":-0.12589623034000397,"32":-0.07570671290159225,"33":-0.16841356456279755,"34":0.13274741172790527,"35":-0.06328454613685608,"36":0.1152835264801979,"37":0.157654270529747,"38":0.15598580241203308,"39":0.11953864991664886,"40":-0.1370597630739212,"41":-0.18094608187675476,"42":-0.15644463896751404,"43":-0.006023494526743889,"44":-0.1097978875041008,"45":-0.08324083685874939,"46":0.05472820624709129,"47":0.013656831346452236,"48":-0.19568586349487305,"49":-0.020891472697257996,"50":-0.0786653533577919,"51":-0.19577856361865997,"52":0.006262417882680893,"53":-0.06991513818502426,"54":-0.23260463774204254,"55":-0.11060774326324463,"56":0.15323719382286072,"57":-0.1645723134279251,"58":-0.050819557160139084,"59":-0.14964357018470764,"60":-0.10902956128120422,"61":-0.00666460208594799,"62":0.056709807366132736,"63":0.10798187553882599,"64":0.03900075703859329,"65":-0.22900214791297913,"66":-0.1965843141078949,"67":-0.05863048881292343,"68":-0.02418755181133747,"69":0.00295161921530962,"70":-0.018626859411597252,"71":-0.031965043395757675,"72":0.06843908131122589,"73":0.14548562467098236,"74":0.0035331123508512974,"75":0.08070226013660431,"76":0.015790924429893494,"77":-0.2311505377292633,"78":0.08201734721660614,"79":0.13530012965202332,"80":-0.09960149973630905,"81":0.1474703699350357,"82":-0.09125854820013046,"83":-0.003215803997591138,"84":-0.11949682235717773,"85":-0.069283626973629,"86":0.02940729819238186,"87":-0.14989922940731049,"88":-0.16948725283145905,"89":-0.09599173814058304,"90":-0.10165298730134964,"91":0.1162685677409172,"92":0.17010267078876495,"93":0.020135918632149696,"94":-0.02537671849131584,"95":-0.06252514570951462,"96":0.17864476144313812,"97":0.12673473358154297,"98":0.061052169650793076,"99":-0.12123198062181473,"100":-0.10778705030679703,"101":0.17454595863819122,"102":-0.16126200556755066,"103":0.07066751271486282,"104":0.010675303637981415,"105":0.1770714670419693,"106":-0.0809483453631401,"107":0.016866907477378845,"108":0.14195077121257782,"109":0.020025212317705154,"110":0.043254829943180084,"111":0.3183145821094513,"112":-0.10891982167959213,"113":0.20188936591148376,"114":0.13103197515010834,"115":-0.14186856150627136,"116":0.12523163855075836,"117":0.184537872672081,"118":0.08388478308916092,"119":0.08113175630569458,"120":-0.043417517095804214,"121":-0.15908300876617432,"122":0.22290818393230438,"123":0.04281694442033768,"124":-0.029492365196347237,"125":-0.1619160771369934,"126":0.10670609772205353,"127":0.250543475151062,"128":0.04504946246743202,"129":-0.060867276042699814,"130":-0.008161526173353195,"131":0.04442278668284416,"132":0.08640296012163162,"133":-0.06769515573978424,"134":0.21916843950748444,"135":0.1643700748682022,"136":-0.16272246837615967,"137":-0.12041372805833817,"138":0.1680862158536911,"139":0.0770781859755516,"140":0.21908250451087952,"141":-0.06243555247783661}},"24":{"bias":-0.11484948545694351,"weights":{"0":0.31413570046424866,"1":-0.059411559253931046,"2":0.012049201875925064,"3":0.19713573157787323,"4":0.06684228032827377,"5":0.08098521083593369,"6":-0.10014323145151138,"7":-0.14863957464694977,"8":0.1740761548280716,"9":0.0491364561021328,"10":-0.0346076637506485,"11":-0.12321977317333221,"12":0.14567679166793823,"13":-0.1513563096523285,"14":-0.14995087683200836,"15":0.09938529878854752,"16":0.06857295334339142,"17":0.13999636471271515,"18":0.03412022814154625,"19":0.22201989591121674,"20":0.18574950098991394,"21":-0.17158962786197662,"22":-0.06642159819602966,"23":0.04368326812982559,"24":-0.16741852462291718,"25":-0.13417772948741913,"26":0.11931250244379044,"27":-0.019917000085115433,"28":-0.025099050253629684,"29":-0.11142207682132721,"30":-0.02557578682899475,"31":0.2144855558872223,"32":-0.06480946391820908,"33":0.09983202069997787,"34":-0.11265181005001068,"35":0.06719235330820084,"36":0.22887307405471802,"37":-0.1180102676153183,"38":-0.07784119993448257,"39":-0.10404452681541443,"40":-0.13736996054649353,"41":0.07825284451246262,"42":-0.07861951738595963,"43":0.0020872873719781637,"44":-0.0077614858746528625,"45":0.08001652359962463,"46":-0.051900360733270645,"47":0.07621332257986069,"48":0.07434020191431046,"49":0.1682177186012268,"50":-0.03655924275517464,"51":-0.015897657722234726,"52":-0.0571567639708519,"53":-0.12809669971466064,"54":-0.22971130907535553,"55":-0.19939275085926056,"56":-0.1950208991765976,"57":-0.06855601817369461,"58":0.1418769210577011,"59":0.07689233124256134,"60":-0.20418624579906464,"61":0.094539575278759,"62":-0.10000211000442505,"63":-0.15157131850719452,"64":0.1799718141555786,"65":-0.1988581269979477,"66":-0.20440617203712463,"67":-0.1265902817249298,"68":-0.17676687240600586,"69":0.10431384295225143,"70":-0.10231724381446838,"71":-0.027629343792796135,"72":-0.010873119346797466,"73":-0.17839622497558594,"74":0.07282569259405136,"75":-0.02157491445541382,"76":0.07623258978128433,"77":0.08193913847208023,"78":0.0301352608948946,"79":-0.17381931841373444,"80":0.061412882059812546,"81":-0.09077325463294983,"82":0.00008049060852499679,"83":-0.1279706507921219,"84":-0.17083656787872314,"85":0.023644471541047096,"86":-0.06274861097335815,"87":-0.051484424620866776,"88":0.047561995685100555,"89":0.06586971133947372,"90":0.07054296880960464,"91":-0.13921944797039032,"92":0.07672757655382156,"93":0.16369959712028503,"94":-0.1275821477174759,"95":0.027737542986869812,"96":-0.058145180344581604,"97":0.1293775886297226,"98":-0.1239459365606308,"99":-0.08342298865318298,"100":-0.17478610575199127,"101":-0.2182210236787796,"102":-0.029655447229743004,"103":-0.1709248274564743,"104":0.010968616232275963,"105":-0.08965445309877396,"106":0.07487882673740387,"107":0.08780684322118759,"108":-0.16619154810905457,"109":0.1404740810394287,"110":0.01907343976199627,"111":-0.25061264634132385,"112":0.03711394593119621,"113":-0.011810561642050743,"114":-0.20037567615509033,"115":-0.2128789871931076,"116":-0.17646709084510803,"117":0.1071159690618515,"118":0.1052897721529007,"119":0.14433050155639648,"120":-0.21362537145614624,"121":-0.12558305263519287,"122":0.014782764948904514,"123":-0.1355292648077011,"124":0.1447293609380722,"125":0.07323406636714935,"126":0.14503394067287445,"127":-0.0055846585892140865,"128":-0.12483963370323181,"129":-0.06893609464168549,"130":-0.12458587437868118,"131":0.12426958233118057,"132":-0.1477183997631073,"133":0.1502205729484558,"134":0.054039835929870605,"135":-0.16622473299503326,"136":0.12564221024513245,"137":0.16318146884441376,"138":-0.07474581152200699,"139":0.10572612285614014,"140":0.05040683597326279,"141":-0.05031008645892143}},"25":{"bias":0.03712385520339012,"weights":{"0":0.09117861837148666,"1":-0.0017460753442719579,"2":-0.08519841730594635,"3":-0.030300306156277657,"4":0.13212215900421143,"5":0.1383044570684433,"6":-0.12407394498586655,"7":-0.005491307005286217,"8":0.129928320646286,"9":0.15677005052566528,"10":-0.16353175044059753,"11":0.2004493921995163,"12":-0.10872318595647812,"13":0.15084737539291382,"14":0.0707569345831871,"15":0.16920146346092224,"16":0.15192671120166779,"17":-0.08822955191135406,"18":0.015276065096259117,"19":-0.047214098274707794,"20":-0.05115627497434616,"21":-0.05991097167134285,"22":0.10265582799911499,"23":-0.17540650069713593,"24":0.17284324765205383,"25":-0.07943146675825119,"26":-0.16045621037483215,"27":0.24791081249713898,"28":0.1403678059577942,"29":-0.001801728387363255,"30":-0.08820116519927979,"31":0.13016237318515778,"32":-0.044263456016778946,"33":-0.05709085986018181,"34":0.07851017266511917,"35":-0.12200658023357391,"36":0.1565885990858078,"37":0.03502662852406502,"38":-0.04221232235431671,"39":-0.07859505712985992,"40":0.024186257272958755,"41":-0.16123679280281067,"42":-0.17037062346935272,"43":-0.08878835290670395,"44":0.03160346671938896,"45":-0.08397267013788223,"46":0.1569453924894333,"47":-0.01246768981218338,"48":-0.1321292221546173,"49":0.0039522163569927216,"50":0.10602226853370667,"51":-0.01634097471833229,"52":-0.024032248184084892,"53":-0.12778450548648834,"54":-0.12982335686683655,"55":0.145469069480896,"56":-0.09439904987812042,"57":0.0009174220613203943,"58":-0.0864359587430954,"59":0.1606031060218811,"60":-0.020681964233517647,"61":0.1752912402153015,"62":-0.18686237931251526,"63":-0.1196342185139656,"64":0.027310917153954506,"65":-0.02190566435456276,"66":-0.1322600096464157,"67":0.1382516771554947,"68":0.1361405849456787,"69":0.016811754554510117,"70":-0.06766803562641144,"71":0.023248780518770218,"72":-0.1847890317440033,"73":0.1677049994468689,"74":0.14377106726169586,"75":0.14061501622200012,"76":0.19100576639175415,"77":0.08493904769420624,"78":0.0628388300538063,"79":-0.03251785412430763,"80":0.08099383115768433,"81":-0.06981063634157181,"82":-0.07017910480499268,"83":0.017757171764969826,"84":0.009100016206502914,"85":0.024942917749285698,"86":0.0077498843893408775,"87":0.09286881238222122,"88":0.023996151983737946,"89":0.08363933116197586,"90":0.05376313626766205,"91":0.12595467269420624,"92":-0.11061824858188629,"93":-0.07705679535865784,"94":0.0832737609744072,"95":-0.19182269275188446,"96":-0.09181342273950577,"97":0.1866428256034851,"98":0.10686063021421432,"99":0.095903679728508,"100":0.008462908677756786,"101":-0.11098392307758331,"102":-0.13195131719112396,"103":0.06715741008520126,"104":0.019585203379392624,"105":-0.00823646318167448,"106":0.1947692185640335,"107":0.10151183605194092,"108":-0.00511593371629715,"109":0.12604054808616638,"110":0.09649979323148727,"111":-0.11731782555580139,"112":-0.12578406929969788,"113":-0.019264545291662216,"114":0.018367942422628403,"115":-0.15849660336971283,"116":-0.19162720441818237,"117":-0.01522561814635992,"118":0.07324142009019852,"119":-0.14162375032901764,"120":-0.17897886037826538,"121":0.12504222989082336,"122":-0.1418338268995285,"123":0.16687685251235962,"124":-0.19234122335910797,"125":-0.11425050348043442,"126":-0.10633715242147446,"127":-0.05169122293591499,"128":-0.048884257674217224,"129":-0.19372494518756866,"130":0.07816360890865326,"131":-0.18360406160354614,"132":-0.14764909446239471,"133":-0.07604361325502396,"134":-0.062123969197273254,"135":0.10109636932611465,"136":0.0743749663233757,"137":-0.03486499562859535,"138":-0.14924341440200806,"139":-0.12612022459506989,"140":-0.07862269878387451,"141":0.09826362133026123}},"26":{"bias":-0.007791764102876186,"weights":{"0":0.047866180539131165,"1":-0.034829508513212204,"2":-0.05741807445883751,"3":0.23775534331798553,"4":0.13547345995903015,"5":0.03840352222323418,"6":0.1442875862121582,"7":0.07950598001480103,"8":0.02527015656232834,"9":-0.09563153982162476,"10":0.21426178514957428,"11":-0.16169044375419617,"12":0.20001666247844696,"13":0.0102029824629426,"14":0.017472105100750923,"15":0.2006884664297104,"16":0.029560638591647148,"17":-0.0836312547326088,"18":0.15002338588237762,"19":0.09993595629930496,"20":0.20959235727787018,"21":-0.011406990699470043,"22":-0.12578962743282318,"23":0.17625747621059418,"24":-0.08089608699083328,"25":-0.13486048579216003,"26":0.17242681980133057,"27":-0.11224591732025146,"28":0.16941234469413757,"29":-0.17971378564834595,"30":0.15154077112674713,"31":-0.14092259109020233,"32":-0.03491809591650963,"33":0.09080156683921814,"34":0.04790065065026283,"35":-0.04729233682155609,"36":0.0008351463475264609,"37":0.17262406647205353,"38":0.18492357432842255,"39":-0.17066429555416107,"40":0.2142680585384369,"41":-0.1672476828098297,"42":0.08353038877248764,"43":0.14763140678405762,"44":-0.027267232537269592,"45":0.013836989179253578,"46":-0.20499257743358612,"47":0.14953577518463135,"48":-0.05870853736996651,"49":0.05315520986914635,"50":-0.144356369972229,"51":-0.09276806563138962,"52":-0.040837883949279785,"53":0.10039042681455612,"54":-0.035875435918569565,"55":-0.13376417756080627,"56":-0.14326755702495575,"57":-0.09759008884429932,"58":-0.010304168798029423,"59":-0.186686173081398,"60":-0.1742468625307083,"61":0.0567936934530735,"62":0.022084562107920647,"63":-0.010337105952203274,"64":0.03336165100336075,"65":0.18344658613204956,"66":0.15235206484794617,"67":-0.04728425294160843,"68":0.12291385978460312,"69":-0.19308103621006012,"70":0.02128273993730545,"71":-0.06884410977363586,"72":0.14085620641708374,"73":-0.1710086464881897,"74":0.05957907810807228,"75":-0.02592959627509117,"76":-0.18993903696537018,"77":0.04716606065630913,"78":0.08814998716115952,"79":0.1358720362186432,"80":0.11406169086694717,"81":0.09624045342206955,"82":-0.04969431459903717,"83":-0.044117383658885956,"84":-0.0709390640258789,"85":-0.02594660595059395,"86":0.1393175572156906,"87":-0.11815135926008224,"88":0.03933054953813553,"89":0.09931811690330505,"90":-0.1800721287727356,"91":-0.1546318531036377,"92":0.15556655824184418,"93":0.028772728517651558,"94":-0.024636555463075638,"95":0.0014786308165639639,"96":0.09808911383152008,"97":0.0006529352976940572,